net
{
    node_size = (80 40);
    HR_Desc = "";
    HR_OOBN_CheckConsistency = "1";
    HR_OOBN_FitExpand = "1";
    HR_Zoom_ZoomFactor = "100";
    HR_Groups_GroupColors = "";
    HR_Groups_GroupNames = "";
    HR_Groups_UserGroupsNo = "0";
    HR_Color_Interface = "21";
    HR_Color_Instance = "0";
    HR_Color_Utility = "36";
    HR_Color_Decision = "17";
    HR_Color_ContinuousChance = "48";
    HR_Color_DiscreteChance = "16";
    HR_Monitor_InitSD = "2";
    HR_Monitor_Utility_Arrange = "0";
    HR_Monitor_Chance_Utility = "1";
    HR_Monitor_InitStates = "5";
    HR_Monitor_OpenGraph = "0";
    HR_Monitor_GraphPrecision = "100";
    HR_Monitor_AutoUpdGraph = "0";
    HR_Compile_MaxMinimalSeparators = "100000";
    HR_Compile_ApproxEpsilon = "1.0E-5";
    HR_Compile_Approximate = "0";
    HR_Compile_SaveToMemory = "0";
    HR_Compile_Compress = "0";
    HR_Compile_TriangMethod = "0";
    HR_Propagate_AutoNormal = "1";
    HR_Propagate_AutoSum = "1";
    HR_Propagate_Auto = "1";
    HR_Font_Italic = "0";
    HR_Font_Weight = "400";
    HR_Font_Size = "-12";
    HR_Font_Name = "Arial";
    HR_Grid_GridShow = "0";
    HR_Grid_GridSnap = "0";
    HR_Grid_Y = "40";
    HR_Grid_X = "40";
}

node Decision
{
    label = "";
    position = (408 80);
    states = ("SOA_SimpleMarket" "SOA_Federated" "SOA_Choreographed_Orchestrated" "NotSOA_Peer-to-peer" "NotSOA_Hierarchical" "Integrated");
    subtype = label;
    HR_State_0 = "One based on the OASIS SOA Reference Model and Reference Architecture: Simple market";
    HR_State_1 = "One based on the OASIS SOA Reference Model and Reference Architecture: Federated";
    HR_Desc = "";
    HR_State_2 = "One based on the OASIS SOA Reference Model and Reference Architecture: Choreographed or Orchestrated";
    HR_State_3 = "Non-SOA distributed: b.\tPeer-to-peer";
    HR_State_4 = "Non-SOA distributed: Hierarchical";
    HR_State_5 = "Integrated";
    HR_Group = "0";
}

node SS
{
    label = "";
    position = (67 214);
    states = ("" "" "");
    subtype = number;
    state_values = (0 1 2);
    HR_LinkMode_Decision = "0";
    HR_State_0 = "";
    HR_State_1 = "";
    HR_State_2 = "";
    HR_Desc = "";
    HR_LinkMode = "[D:0]";
    HR_Group = "0";
}

node SF
{
    label = "";
    position = (196 248);
    states = ("" "" "");
    subtype = number;
    state_values = (0 1 2);
    HR_LinkMode_Decision = "0";
    HR_State_0 = "";
    HR_State_1 = "";
    HR_State_2 = "";
    HR_Desc = "";
    HR_LinkMode = "[D:0]";
    HR_Group = "0";
}

node SC
{
    label = "";
    position = (312 258);
    states = ("" "" "");
    subtype = number;
    state_values = (0 1 2);
    HR_LinkMode_Decision = "0";
    HR_State_0 = "";
    HR_State_1 = "";
    HR_State_2 = "";
    HR_Desc = "";
    HR_LinkMode = "[D:0]";
    HR_Group = "0";
}

node NP
{
    label = "";
    position = (508 254);
    states = ("" "" "");
    subtype = number;
    state_values = (0 1 2);
    HR_LinkMode_Decision = "0";
    HR_State_0 = "";
    HR_State_1 = "";
    HR_State_2 = "";
    HR_Desc = "";
    HR_LinkMode = "[D:0]";
    HR_Group = "0";
}

node NH
{
    label = "";
    position = (627 243);
    states = ("" "" "");
    subtype = number;
    state_values = (0 1 2);
    HR_LinkMode_Decision = "0";
    HR_State_0 = "";
    HR_State_1 = "";
    HR_State_2 = "";
    HR_Desc = "";
    HR_LinkMode = "[D:0]";
    HR_Group = "0";
}

node IN
{
    label = "";
    position = (736 218);
    states = ("" "" "");
    subtype = number;
    state_values = (0 1 2);
    HR_LinkMode_Decision = "0";
    HR_State_0 = "";
    HR_State_1 = "";
    HR_State_2 = "";
    HR_Desc = "";
    HR_LinkMode = "[D:0]";
    HR_Group = "0";
}

potential (Decision | SS SF SC NP NH IN)
{
    model_nodes = ();
    model_data = ( if (and (SS == 0, SF == 0, SC == 0, NP == 0, NH == 0, IN == 0), Distribution (0.167, 0.167, 0.167, 0.167, 0.167, 0.167), Distribution (SS / (SS + SF + SC + NP + NH + IN), SF / (SS + SF + SC + NP + NH + IN), SC / (SS + SF + SC + NP + NH + IN), NP / (SS + SF + SC + NP + NH + IN), NH / (SS + SF + SC + NP + NH + IN), IN / (SS + SF + SC + NP + NH + IN))) );
    data
     = ((((((( 0.166667 0.166667 0.166667 0.166667 0.166667 0.166667 )	%  SS=0  SF=0  SC=0  NP=0  NH=0  IN=0
	     ( 0 0 0 0 0 1 )	%  SS=0  SF=0  SC=0  NP=0  NH=0  IN=1
	     ( 0 0 0 0 0 1 ))	%  SS=0  SF=0  SC=0  NP=0  NH=0  IN=2
	    (( 0 0 0 0 1 0 )	%  SS=0  SF=0  SC=0  NP=0  NH=1  IN=0
	     ( 0 0 0 0 0.5 0.5 )	%  SS=0  SF=0  SC=0  NP=0  NH=1  IN=1
	     ( 0 0 0 0 0.333333 0.666667 ))	%  SS=0  SF=0  SC=0  NP=0  NH=1  IN=2
	    (( 0 0 0 0 1 0 )	%  SS=0  SF=0  SC=0  NP=0  NH=2  IN=0
	     ( 0 0 0 0 0.666667 0.333333 )	%  SS=0  SF=0  SC=0  NP=0  NH=2  IN=1
	     ( 0 0 0 0 0.5 0.5 )))	%  SS=0  SF=0  SC=0  NP=0  NH=2  IN=2
	   ((( 0 0 0 1 0 0 )	%  SS=0  SF=0  SC=0  NP=1  NH=0  IN=0
	     ( 0 0 0 0.5 0 0.5 )	%  SS=0  SF=0  SC=0  NP=1  NH=0  IN=1
	     ( 0 0 0 0.333333 0 0.666667 ))	%  SS=0  SF=0  SC=0  NP=1  NH=0  IN=2
	    (( 0 0 0 0.5 0.5 0 )	%  SS=0  SF=0  SC=0  NP=1  NH=1  IN=0
	     ( 0 0 0 0.333333 0.333333 0.333333 )	%  SS=0  SF=0  SC=0  NP=1  NH=1  IN=1
	     ( 0 0 0 0.25 0.25 0.5 ))	%  SS=0  SF=0  SC=0  NP=1  NH=1  IN=2
	    (( 0 0 0 0.333333 0.666667 0 )	%  SS=0  SF=0  SC=0  NP=1  NH=2  IN=0
	     ( 0 0 0 0.25 0.5 0.25 )	%  SS=0  SF=0  SC=0  NP=1  NH=2  IN=1
	     ( 0 0 0 0.2 0.4 0.4 )))	%  SS=0  SF=0  SC=0  NP=1  NH=2  IN=2
	   ((( 0 0 0 1 0 0 )	%  SS=0  SF=0  SC=0  NP=2  NH=0  IN=0
	     ( 0 0 0 0.666667 0 0.333333 )	%  SS=0  SF=0  SC=0  NP=2  NH=0  IN=1
	     ( 0 0 0 0.5 0 0.5 ))	%  SS=0  SF=0  SC=0  NP=2  NH=0  IN=2
	    (( 0 0 0 0.666667 0.333333 0 )	%  SS=0  SF=0  SC=0  NP=2  NH=1  IN=0
	     ( 0 0 0 0.5 0.25 0.25 )	%  SS=0  SF=0  SC=0  NP=2  NH=1  IN=1
	     ( 0 0 0 0.4 0.2 0.4 ))	%  SS=0  SF=0  SC=0  NP=2  NH=1  IN=2
	    (( 0 0 0 0.5 0.5 0 )	%  SS=0  SF=0  SC=0  NP=2  NH=2  IN=0
	     ( 0 0 0 0.4 0.4 0.2 )	%  SS=0  SF=0  SC=0  NP=2  NH=2  IN=1
	     ( 0 0 0 0.333333 0.333333 0.333333 ))))	%  SS=0  SF=0  SC=0  NP=2  NH=2  IN=2
	  (((( 0 0 1 0 0 0 )	%  SS=0  SF=0  SC=1  NP=0  NH=0  IN=0
	     ( 0 0 0.5 0 0 0.5 )	%  SS=0  SF=0  SC=1  NP=0  NH=0  IN=1
	     ( 0 0 0.333333 0 0 0.666667 ))	%  SS=0  SF=0  SC=1  NP=0  NH=0  IN=2
	    (( 0 0 0.5 0 0.5 0 )	%  SS=0  SF=0  SC=1  NP=0  NH=1  IN=0
	     ( 0 0 0.333333 0 0.333333 0.333333 )	%  SS=0  SF=0  SC=1  NP=0  NH=1  IN=1
	     ( 0 0 0.25 0 0.25 0.5 ))	%  SS=0  SF=0  SC=1  NP=0  NH=1  IN=2
	    (( 0 0 0.333333 0 0.666667 0 )	%  SS=0  SF=0  SC=1  NP=0  NH=2  IN=0
	     ( 0 0 0.25 0 0.5 0.25 )	%  SS=0  SF=0  SC=1  NP=0  NH=2  IN=1
	     ( 0 0 0.2 0 0.4 0.4 )))	%  SS=0  SF=0  SC=1  NP=0  NH=2  IN=2
	   ((( 0 0 0.5 0.5 0 0 )	%  SS=0  SF=0  SC=1  NP=1  NH=0  IN=0
	     ( 0 0 0.333333 0.333333 0 0.333333 )	%  SS=0  SF=0  SC=1  NP=1  NH=0  IN=1
	     ( 0 0 0.25 0.25 0 0.5 ))	%  SS=0  SF=0  SC=1  NP=1  NH=0  IN=2
	    (( 0 0 0.333333 0.333333 0.333333 0 )	%  SS=0  SF=0  SC=1  NP=1  NH=1  IN=0
	     ( 0 0 0.25 0.25 0.25 0.25 )	%  SS=0  SF=0  SC=1  NP=1  NH=1  IN=1
	     ( 0 0 0.2 0.2 0.2 0.4 ))	%  SS=0  SF=0  SC=1  NP=1  NH=1  IN=2
	    (( 0 0 0.25 0.25 0.5 0 )	%  SS=0  SF=0  SC=1  NP=1  NH=2  IN=0
	     ( 0 0 0.2 0.2 0.4 0.2 )	%  SS=0  SF=0  SC=1  NP=1  NH=2  IN=1
	     ( 0 0 0.166667 0.166667 0.333333 0.333333 )))	%  SS=0  SF=0  SC=1  NP=1  NH=2  IN=2
	   ((( 0 0 0.333333 0.666667 0 0 )	%  SS=0  SF=0  SC=1  NP=2  NH=0  IN=0
	     ( 0 0 0.25 0.5 0 0.25 )	%  SS=0  SF=0  SC=1  NP=2  NH=0  IN=1
	     ( 0 0 0.2 0.4 0 0.4 ))	%  SS=0  SF=0  SC=1  NP=2  NH=0  IN=2
	    (( 0 0 0.25 0.5 0.25 0 )	%  SS=0  SF=0  SC=1  NP=2  NH=1  IN=0
	     ( 0 0 0.2 0.4 0.2 0.2 )	%  SS=0  SF=0  SC=1  NP=2  NH=1  IN=1
	     ( 0 0 0.166667 0.333333 0.166667 0.333333 ))	%  SS=0  SF=0  SC=1  NP=2  NH=1  IN=2
	    (( 0 0 0.2 0.4 0.4 0 )	%  SS=0  SF=0  SC=1  NP=2  NH=2  IN=0
	     ( 0 0 0.166667 0.333333 0.333333 0.166667 )	%  SS=0  SF=0  SC=1  NP=2  NH=2  IN=1
	     ( 0 0 0.142857 0.285714 0.285714 0.285714 ))))	%  SS=0  SF=0  SC=1  NP=2  NH=2  IN=2
	  (((( 0 0 1 0 0 0 )	%  SS=0  SF=0  SC=2  NP=0  NH=0  IN=0
	     ( 0 0 0.666667 0 0 0.333333 )	%  SS=0  SF=0  SC=2  NP=0  NH=0  IN=1
	     ( 0 0 0.5 0 0 0.5 ))	%  SS=0  SF=0  SC=2  NP=0  NH=0  IN=2
	    (( 0 0 0.666667 0 0.333333 0 )	%  SS=0  SF=0  SC=2  NP=0  NH=1  IN=0
	     ( 0 0 0.5 0 0.25 0.25 )	%  SS=0  SF=0  SC=2  NP=0  NH=1  IN=1
	     ( 0 0 0.4 0 0.2 0.4 ))	%  SS=0  SF=0  SC=2  NP=0  NH=1  IN=2
	    (( 0 0 0.5 0 0.5 0 )	%  SS=0  SF=0  SC=2  NP=0  NH=2  IN=0
	     ( 0 0 0.4 0 0.4 0.2 )	%  SS=0  SF=0  SC=2  NP=0  NH=2  IN=1
	     ( 0 0 0.333333 0 0.333333 0.333333 )))	%  SS=0  SF=0  SC=2  NP=0  NH=2  IN=2
	   ((( 0 0 0.666667 0.333333 0 0 )	%  SS=0  SF=0  SC=2  NP=1  NH=0  IN=0
	     ( 0 0 0.5 0.25 0 0.25 )	%  SS=0  SF=0  SC=2  NP=1  NH=0  IN=1
	     ( 0 0 0.4 0.2 0 0.4 ))	%  SS=0  SF=0  SC=2  NP=1  NH=0  IN=2
	    (( 0 0 0.5 0.25 0.25 0 )	%  SS=0  SF=0  SC=2  NP=1  NH=1  IN=0
	     ( 0 0 0.4 0.2 0.2 0.2 )	%  SS=0  SF=0  SC=2  NP=1  NH=1  IN=1
	     ( 0 0 0.333333 0.166667 0.166667 0.333333 ))	%  SS=0  SF=0  SC=2  NP=1  NH=1  IN=2
	    (( 0 0 0.4 0.2 0.4 0 )	%  SS=0  SF=0  SC=2  NP=1  NH=2  IN=0
	     ( 0 0 0.333333 0.166667 0.333333 0.166667 )	%  SS=0  SF=0  SC=2  NP=1  NH=2  IN=1
	     ( 0 0 0.285714 0.142857 0.285714 0.285714 )))	%  SS=0  SF=0  SC=2  NP=1  NH=2  IN=2
	   ((( 0 0 0.5 0.5 0 0 )	%  SS=0  SF=0  SC=2  NP=2  NH=0  IN=0
	     ( 0 0 0.4 0.4 0 0.2 )	%  SS=0  SF=0  SC=2  NP=2  NH=0  IN=1
	     ( 0 0 0.333333 0.333333 0 0.333333 ))	%  SS=0  SF=0  SC=2  NP=2  NH=0  IN=2
	    (( 0 0 0.4 0.4 0.2 0 )	%  SS=0  SF=0  SC=2  NP=2  NH=1  IN=0
	     ( 0 0 0.333333 0.333333 0.166667 0.166667 )	%  SS=0  SF=0  SC=2  NP=2  NH=1  IN=1
	     ( 0 0 0.285714 0.285714 0.142857 0.285714 ))	%  SS=0  SF=0  SC=2  NP=2  NH=1  IN=2
	    (( 0 0 0.333333 0.333333 0.333333 0 )	%  SS=0  SF=0  SC=2  NP=2  NH=2  IN=0
	     ( 0 0 0.285714 0.285714 0.285714 0.142857 )	%  SS=0  SF=0  SC=2  NP=2  NH=2  IN=1
	     ( 0 0 0.25 0.25 0.25 0.25 )))))	%  SS=0  SF=0  SC=2  NP=2  NH=2  IN=2
	 ((((( 0 1 0 0 0 0 )	%  SS=0  SF=1  SC=0  NP=0  NH=0  IN=0
	     ( 0 0.5 0 0 0 0.5 )	%  SS=0  SF=1  SC=0  NP=0  NH=0  IN=1
	     ( 0 0.333333 0 0 0 0.666667 ))	%  SS=0  SF=1  SC=0  NP=0  NH=0  IN=2
	    (( 0 0.5 0 0 0.5 0 )	%  SS=0  SF=1  SC=0  NP=0  NH=1  IN=0
	     ( 0 0.333333 0 0 0.333333 0.333333 )	%  SS=0  SF=1  SC=0  NP=0  NH=1  IN=1
	     ( 0 0.25 0 0 0.25 0.5 ))	%  SS=0  SF=1  SC=0  NP=0  NH=1  IN=2
	    (( 0 0.333333 0 0 0.666667 0 )	%  SS=0  SF=1  SC=0  NP=0  NH=2  IN=0
	     ( 0 0.25 0 0 0.5 0.25 )	%  SS=0  SF=1  SC=0  NP=0  NH=2  IN=1
	     ( 0 0.2 0 0 0.4 0.4 )))	%  SS=0  SF=1  SC=0  NP=0  NH=2  IN=2
	   ((( 0 0.5 0 0.5 0 0 )	%  SS=0  SF=1  SC=0  NP=1  NH=0  IN=0
	     ( 0 0.333333 0 0.333333 0 0.333333 )	%  SS=0  SF=1  SC=0  NP=1  NH=0  IN=1
	     ( 0 0.25 0 0.25 0 0.5 ))	%  SS=0  SF=1  SC=0  NP=1  NH=0  IN=2
	    (( 0 0.333333 0 0.333333 0.333333 0 )	%  SS=0  SF=1  SC=0  NP=1  NH=1  IN=0
	     ( 0 0.25 0 0.25 0.25 0.25 )	%  SS=0  SF=1  SC=0  NP=1  NH=1  IN=1
	     ( 0 0.2 0 0.2 0.2 0.4 ))	%  SS=0  SF=1  SC=0  NP=1  NH=1  IN=2
	    (( 0 0.25 0 0.25 0.5 0 )	%  SS=0  SF=1  SC=0  NP=1  NH=2  IN=0
	     ( 0 0.2 0 0.2 0.4 0.2 )	%  SS=0  SF=1  SC=0  NP=1  NH=2  IN=1
	     ( 0 0.166667 0 0.166667 0.333333 0.333333 )))	%  SS=0  SF=1  SC=0  NP=1  NH=2  IN=2
	   ((( 0 0.333333 0 0.666667 0 0 )	%  SS=0  SF=1  SC=0  NP=2  NH=0  IN=0
	     ( 0 0.25 0 0.5 0 0.25 )	%  SS=0  SF=1  SC=0  NP=2  NH=0  IN=1
	     ( 0 0.2 0 0.4 0 0.4 ))	%  SS=0  SF=1  SC=0  NP=2  NH=0  IN=2
	    (( 0 0.25 0 0.5 0.25 0 )	%  SS=0  SF=1  SC=0  NP=2  NH=1  IN=0
	     ( 0 0.2 0 0.4 0.2 0.2 )	%  SS=0  SF=1  SC=0  NP=2  NH=1  IN=1
	     ( 0 0.166667 0 0.333333 0.166667 0.333333 ))	%  SS=0  SF=1  SC=0  NP=2  NH=1  IN=2
	    (( 0 0.2 0 0.4 0.4 0 )	%  SS=0  SF=1  SC=0  NP=2  NH=2  IN=0
	     ( 0 0.166667 0 0.333333 0.333333 0.166667 )	%  SS=0  SF=1  SC=0  NP=2  NH=2  IN=1
	     ( 0 0.142857 0 0.285714 0.285714 0.285714 ))))	%  SS=0  SF=1  SC=0  NP=2  NH=2  IN=2
	  (((( 0 0.5 0.5 0 0 0 )	%  SS=0  SF=1  SC=1  NP=0  NH=0  IN=0
	     ( 0 0.333333 0.333333 0 0 0.333333 )	%  SS=0  SF=1  SC=1  NP=0  NH=0  IN=1
	     ( 0 0.25 0.25 0 0 0.5 ))	%  SS=0  SF=1  SC=1  NP=0  NH=0  IN=2
	    (( 0 0.333333 0.333333 0 0.333333 0 )	%  SS=0  SF=1  SC=1  NP=0  NH=1  IN=0
	     ( 0 0.25 0.25 0 0.25 0.25 )	%  SS=0  SF=1  SC=1  NP=0  NH=1  IN=1
	     ( 0 0.2 0.2 0 0.2 0.4 ))	%  SS=0  SF=1  SC=1  NP=0  NH=1  IN=2
	    (( 0 0.25 0.25 0 0.5 0 )	%  SS=0  SF=1  SC=1  NP=0  NH=2  IN=0
	     ( 0 0.2 0.2 0 0.4 0.2 )	%  SS=0  SF=1  SC=1  NP=0  NH=2  IN=1
	     ( 0 0.166667 0.166667 0 0.333333 0.333333 )))	%  SS=0  SF=1  SC=1  NP=0  NH=2  IN=2
	   ((( 0 0.333333 0.333333 0.333333 0 0 )	%  SS=0  SF=1  SC=1  NP=1  NH=0  IN=0
	     ( 0 0.25 0.25 0.25 0 0.25 )	%  SS=0  SF=1  SC=1  NP=1  NH=0  IN=1
	     ( 0 0.2 0.2 0.2 0 0.4 ))	%  SS=0  SF=1  SC=1  NP=1  NH=0  IN=2
	    (( 0 0.25 0.25 0.25 0.25 0 )	%  SS=0  SF=1  SC=1  NP=1  NH=1  IN=0
	     ( 0 0.2 0.2 0.2 0.2 0.2 )	%  SS=0  SF=1  SC=1  NP=1  NH=1  IN=1
	     ( 0 0.166667 0.166667 0.166667 0.166667 0.333333 ))	%  SS=0  SF=1  SC=1  NP=1  NH=1  IN=2
	    (( 0 0.2 0.2 0.2 0.4 0 )	%  SS=0  SF=1  SC=1  NP=1  NH=2  IN=0
	     ( 0 0.166667 0.166667 0.166667 0.333333 0.166667 )	%  SS=0  SF=1  SC=1  NP=1  NH=2  IN=1
	     ( 0 0.142857 0.142857 0.142857 0.285714 0.285714 )))	%  SS=0  SF=1  SC=1  NP=1  NH=2  IN=2
	   ((( 0 0.25 0.25 0.5 0 0 )	%  SS=0  SF=1  SC=1  NP=2  NH=0  IN=0
	     ( 0 0.2 0.2 0.4 0 0.2 )	%  SS=0  SF=1  SC=1  NP=2  NH=0  IN=1
	     ( 0 0.166667 0.166667 0.333333 0 0.333333 ))	%  SS=0  SF=1  SC=1  NP=2  NH=0  IN=2
	    (( 0 0.2 0.2 0.4 0.2 0 )	%  SS=0  SF=1  SC=1  NP=2  NH=1  IN=0
	     ( 0 0.166667 0.166667 0.333333 0.166667 0.166667 )	%  SS=0  SF=1  SC=1  NP=2  NH=1  IN=1
	     ( 0 0.142857 0.142857 0.285714 0.142857 0.285714 ))	%  SS=0  SF=1  SC=1  NP=2  NH=1  IN=2
	    (( 0 0.166667 0.166667 0.333333 0.333333 0 )	%  SS=0  SF=1  SC=1  NP=2  NH=2  IN=0
	     ( 0 0.142857 0.142857 0.285714 0.285714 0.142857 )	%  SS=0  SF=1  SC=1  NP=2  NH=2  IN=1
	     ( 0 0.125 0.125 0.25 0.25 0.25 ))))	%  SS=0  SF=1  SC=1  NP=2  NH=2  IN=2
	  (((( 0 0.333333 0.666667 0 0 0 )	%  SS=0  SF=1  SC=2  NP=0  NH=0  IN=0
	     ( 0 0.25 0.5 0 0 0.25 )	%  SS=0  SF=1  SC=2  NP=0  NH=0  IN=1
	     ( 0 0.2 0.4 0 0 0.4 ))	%  SS=0  SF=1  SC=2  NP=0  NH=0  IN=2
	    (( 0 0.25 0.5 0 0.25 0 )	%  SS=0  SF=1  SC=2  NP=0  NH=1  IN=0
	     ( 0 0.2 0.4 0 0.2 0.2 )	%  SS=0  SF=1  SC=2  NP=0  NH=1  IN=1
	     ( 0 0.166667 0.333333 0 0.166667 0.333333 ))	%  SS=0  SF=1  SC=2  NP=0  NH=1  IN=2
	    (( 0 0.2 0.4 0 0.4 0 )	%  SS=0  SF=1  SC=2  NP=0  NH=2  IN=0
	     ( 0 0.166667 0.333333 0 0.333333 0.166667 )	%  SS=0  SF=1  SC=2  NP=0  NH=2  IN=1
	     ( 0 0.142857 0.285714 0 0.285714 0.285714 )))	%  SS=0  SF=1  SC=2  NP=0  NH=2  IN=2
	   ((( 0 0.25 0.5 0.25 0 0 )	%  SS=0  SF=1  SC=2  NP=1  NH=0  IN=0
	     ( 0 0.2 0.4 0.2 0 0.2 )	%  SS=0  SF=1  SC=2  NP=1  NH=0  IN=1
	     ( 0 0.166667 0.333333 0.166667 0 0.333333 ))	%  SS=0  SF=1  SC=2  NP=1  NH=0  IN=2
	    (( 0 0.2 0.4 0.2 0.2 0 )	%  SS=0  SF=1  SC=2  NP=1  NH=1  IN=0
	     ( 0 0.166667 0.333333 0.166667 0.166667 0.166667 )	%  SS=0  SF=1  SC=2  NP=1  NH=1  IN=1
	     ( 0 0.142857 0.285714 0.142857 0.142857 0.285714 ))	%  SS=0  SF=1  SC=2  NP=1  NH=1  IN=2
	    (( 0 0.166667 0.333333 0.166667 0.333333 0 )	%  SS=0  SF=1  SC=2  NP=1  NH=2  IN=0
	     ( 0 0.142857 0.285714 0.142857 0.285714 0.142857 )	%  SS=0  SF=1  SC=2  NP=1  NH=2  IN=1
	     ( 0 0.125 0.25 0.125 0.25 0.25 )))	%  SS=0  SF=1  SC=2  NP=1  NH=2  IN=2
	   ((( 0 0.2 0.4 0.4 0 0 )	%  SS=0  SF=1  SC=2  NP=2  NH=0  IN=0
	     ( 0 0.166667 0.333333 0.333333 0 0.166667 )	%  SS=0  SF=1  SC=2  NP=2  NH=0  IN=1
	     ( 0 0.142857 0.285714 0.285714 0 0.285714 ))	%  SS=0  SF=1  SC=2  NP=2  NH=0  IN=2
	    (( 0 0.166667 0.333333 0.333333 0.166667 0 )	%  SS=0  SF=1  SC=2  NP=2  NH=1  IN=0
	     ( 0 0.142857 0.285714 0.285714 0.142857 0.142857 )	%  SS=0  SF=1  SC=2  NP=2  NH=1  IN=1
	     ( 0 0.125 0.25 0.25 0.125 0.25 ))	%  SS=0  SF=1  SC=2  NP=2  NH=1  IN=2
	    (( 0 0.142857 0.285714 0.285714 0.285714 0 )	%  SS=0  SF=1  SC=2  NP=2  NH=2  IN=0
	     ( 0 0.125 0.25 0.25 0.25 0.125 )	%  SS=0  SF=1  SC=2  NP=2  NH=2  IN=1
	     ( 0 0.111111 0.222222 0.222222 0.222222 0.222222 )))))	%  SS=0  SF=1  SC=2  NP=2  NH=2  IN=2
	 ((((( 0 1 0 0 0 0 )	%  SS=0  SF=2  SC=0  NP=0  NH=0  IN=0
	     ( 0 0.666667 0 0 0 0.333333 )	%  SS=0  SF=2  SC=0  NP=0  NH=0  IN=1
	     ( 0 0.5 0 0 0 0.5 ))	%  SS=0  SF=2  SC=0  NP=0  NH=0  IN=2
	    (( 0 0.666667 0 0 0.333333 0 )	%  SS=0  SF=2  SC=0  NP=0  NH=1  IN=0
	     ( 0 0.5 0 0 0.25 0.25 )	%  SS=0  SF=2  SC=0  NP=0  NH=1  IN=1
	     ( 0 0.4 0 0 0.2 0.4 ))	%  SS=0  SF=2  SC=0  NP=0  NH=1  IN=2
	    (( 0 0.5 0 0 0.5 0 )	%  SS=0  SF=2  SC=0  NP=0  NH=2  IN=0
	     ( 0 0.4 0 0 0.4 0.2 )	%  SS=0  SF=2  SC=0  NP=0  NH=2  IN=1
	     ( 0 0.333333 0 0 0.333333 0.333333 )))	%  SS=0  SF=2  SC=0  NP=0  NH=2  IN=2
	   ((( 0 0.666667 0 0.333333 0 0 )	%  SS=0  SF=2  SC=0  NP=1  NH=0  IN=0
	     ( 0 0.5 0 0.25 0 0.25 )	%  SS=0  SF=2  SC=0  NP=1  NH=0  IN=1
	     ( 0 0.4 0 0.2 0 0.4 ))	%  SS=0  SF=2  SC=0  NP=1  NH=0  IN=2
	    (( 0 0.5 0 0.25 0.25 0 )	%  SS=0  SF=2  SC=0  NP=1  NH=1  IN=0
	     ( 0 0.4 0 0.2 0.2 0.2 )	%  SS=0  SF=2  SC=0  NP=1  NH=1  IN=1
	     ( 0 0.333333 0 0.166667 0.166667 0.333333 ))	%  SS=0  SF=2  SC=0  NP=1  NH=1  IN=2
	    (( 0 0.4 0 0.2 0.4 0 )	%  SS=0  SF=2  SC=0  NP=1  NH=2  IN=0
	     ( 0 0.333333 0 0.166667 0.333333 0.166667 )	%  SS=0  SF=2  SC=0  NP=1  NH=2  IN=1
	     ( 0 0.285714 0 0.142857 0.285714 0.285714 )))	%  SS=0  SF=2  SC=0  NP=1  NH=2  IN=2
	   ((( 0 0.5 0 0.5 0 0 )	%  SS=0  SF=2  SC=0  NP=2  NH=0  IN=0
	     ( 0 0.4 0 0.4 0 0.2 )	%  SS=0  SF=2  SC=0  NP=2  NH=0  IN=1
	     ( 0 0.333333 0 0.333333 0 0.333333 ))	%  SS=0  SF=2  SC=0  NP=2  NH=0  IN=2
	    (( 0 0.4 0 0.4 0.2 0 )	%  SS=0  SF=2  SC=0  NP=2  NH=1  IN=0
	     ( 0 0.333333 0 0.333333 0.166667 0.166667 )	%  SS=0  SF=2  SC=0  NP=2  NH=1  IN=1
	     ( 0 0.285714 0 0.285714 0.142857 0.285714 ))	%  SS=0  SF=2  SC=0  NP=2  NH=1  IN=2
	    (( 0 0.333333 0 0.333333 0.333333 0 )	%  SS=0  SF=2  SC=0  NP=2  NH=2  IN=0
	     ( 0 0.285714 0 0.285714 0.285714 0.142857 )	%  SS=0  SF=2  SC=0  NP=2  NH=2  IN=1
	     ( 0 0.25 0 0.25 0.25 0.25 ))))	%  SS=0  SF=2  SC=0  NP=2  NH=2  IN=2
	  (((( 0 0.666667 0.333333 0 0 0 )	%  SS=0  SF=2  SC=1  NP=0  NH=0  IN=0
	     ( 0 0.5 0.25 0 0 0.25 )	%  SS=0  SF=2  SC=1  NP=0  NH=0  IN=1
	     ( 0 0.4 0.2 0 0 0.4 ))	%  SS=0  SF=2  SC=1  NP=0  NH=0  IN=2
	    (( 0 0.5 0.25 0 0.25 0 )	%  SS=0  SF=2  SC=1  NP=0  NH=1  IN=0
	     ( 0 0.4 0.2 0 0.2 0.2 )	%  SS=0  SF=2  SC=1  NP=0  NH=1  IN=1
	     ( 0 0.333333 0.166667 0 0.166667 0.333333 ))	%  SS=0  SF=2  SC=1  NP=0  NH=1  IN=2
	    (( 0 0.4 0.2 0 0.4 0 )	%  SS=0  SF=2  SC=1  NP=0  NH=2  IN=0
	     ( 0 0.333333 0.166667 0 0.333333 0.166667 )	%  SS=0  SF=2  SC=1  NP=0  NH=2  IN=1
	     ( 0 0.285714 0.142857 0 0.285714 0.285714 )))	%  SS=0  SF=2  SC=1  NP=0  NH=2  IN=2
	   ((( 0 0.5 0.25 0.25 0 0 )	%  SS=0  SF=2  SC=1  NP=1  NH=0  IN=0
	     ( 0 0.4 0.2 0.2 0 0.2 )	%  SS=0  SF=2  SC=1  NP=1  NH=0  IN=1
	     ( 0 0.333333 0.166667 0.166667 0 0.333333 ))	%  SS=0  SF=2  SC=1  NP=1  NH=0  IN=2
	    (( 0 0.4 0.2 0.2 0.2 0 )	%  SS=0  SF=2  SC=1  NP=1  NH=1  IN=0
	     ( 0 0.333333 0.166667 0.166667 0.166667 0.166667 )	%  SS=0  SF=2  SC=1  NP=1  NH=1  IN=1
	     ( 0 0.285714 0.142857 0.142857 0.142857 0.285714 ))	%  SS=0  SF=2  SC=1  NP=1  NH=1  IN=2
	    (( 0 0.333333 0.166667 0.166667 0.333333 0 )	%  SS=0  SF=2  SC=1  NP=1  NH=2  IN=0
	     ( 0 0.285714 0.142857 0.142857 0.285714 0.142857 )	%  SS=0  SF=2  SC=1  NP=1  NH=2  IN=1
	     ( 0 0.25 0.125 0.125 0.25 0.25 )))	%  SS=0  SF=2  SC=1  NP=1  NH=2  IN=2
	   ((( 0 0.4 0.2 0.4 0 0 )	%  SS=0  SF=2  SC=1  NP=2  NH=0  IN=0
	     ( 0 0.333333 0.166667 0.333333 0 0.166667 )	%  SS=0  SF=2  SC=1  NP=2  NH=0  IN=1
	     ( 0 0.285714 0.142857 0.285714 0 0.285714 ))	%  SS=0  SF=2  SC=1  NP=2  NH=0  IN=2
	    (( 0 0.333333 0.166667 0.333333 0.166667 0 )	%  SS=0  SF=2  SC=1  NP=2  NH=1  IN=0
	     ( 0 0.285714 0.142857 0.285714 0.142857 0.142857 )	%  SS=0  SF=2  SC=1  NP=2  NH=1  IN=1
	     ( 0 0.25 0.125 0.25 0.125 0.25 ))	%  SS=0  SF=2  SC=1  NP=2  NH=1  IN=2
	    (( 0 0.285714 0.142857 0.285714 0.285714 0 )	%  SS=0  SF=2  SC=1  NP=2  NH=2  IN=0
	     ( 0 0.25 0.125 0.25 0.25 0.125 )	%  SS=0  SF=2  SC=1  NP=2  NH=2  IN=1
	     ( 0 0.222222 0.111111 0.222222 0.222222 0.222222 ))))	%  SS=0  SF=2  SC=1  NP=2  NH=2  IN=2
	  (((( 0 0.5 0.5 0 0 0 )	%  SS=0  SF=2  SC=2  NP=0  NH=0  IN=0
	     ( 0 0.4 0.4 0 0 0.2 )	%  SS=0  SF=2  SC=2  NP=0  NH=0  IN=1
	     ( 0 0.333333 0.333333 0 0 0.333333 ))	%  SS=0  SF=2  SC=2  NP=0  NH=0  IN=2
	    (( 0 0.4 0.4 0 0.2 0 )	%  SS=0  SF=2  SC=2  NP=0  NH=1  IN=0
	     ( 0 0.333333 0.333333 0 0.166667 0.166667 )	%  SS=0  SF=2  SC=2  NP=0  NH=1  IN=1
	     ( 0 0.285714 0.285714 0 0.142857 0.285714 ))	%  SS=0  SF=2  SC=2  NP=0  NH=1  IN=2
	    (( 0 0.333333 0.333333 0 0.333333 0 )	%  SS=0  SF=2  SC=2  NP=0  NH=2  IN=0
	     ( 0 0.285714 0.285714 0 0.285714 0.142857 )	%  SS=0  SF=2  SC=2  NP=0  NH=2  IN=1
	     ( 0 0.25 0.25 0 0.25 0.25 )))	%  SS=0  SF=2  SC=2  NP=0  NH=2  IN=2
	   ((( 0 0.4 0.4 0.2 0 0 )	%  SS=0  SF=2  SC=2  NP=1  NH=0  IN=0
	     ( 0 0.333333 0.333333 0.166667 0 0.166667 )	%  SS=0  SF=2  SC=2  NP=1  NH=0  IN=1
	     ( 0 0.285714 0.285714 0.142857 0 0.285714 ))	%  SS=0  SF=2  SC=2  NP=1  NH=0  IN=2
	    (( 0 0.333333 0.333333 0.166667 0.166667 0 )	%  SS=0  SF=2  SC=2  NP=1  NH=1  IN=0
	     ( 0 0.285714 0.285714 0.142857 0.142857 0.142857 )	%  SS=0  SF=2  SC=2  NP=1  NH=1  IN=1
	     ( 0 0.25 0.25 0.125 0.125 0.25 ))	%  SS=0  SF=2  SC=2  NP=1  NH=1  IN=2
	    (( 0 0.285714 0.285714 0.142857 0.285714 0 )	%  SS=0  SF=2  SC=2  NP=1  NH=2  IN=0
	     ( 0 0.25 0.25 0.125 0.25 0.125 )	%  SS=0  SF=2  SC=2  NP=1  NH=2  IN=1
	     ( 0 0.222222 0.222222 0.111111 0.222222 0.222222 )))	%  SS=0  SF=2  SC=2  NP=1  NH=2  IN=2
	   ((( 0 0.333333 0.333333 0.333333 0 0 )	%  SS=0  SF=2  SC=2  NP=2  NH=0  IN=0
	     ( 0 0.285714 0.285714 0.285714 0 0.142857 )	%  SS=0  SF=2  SC=2  NP=2  NH=0  IN=1
	     ( 0 0.25 0.25 0.25 0 0.25 ))	%  SS=0  SF=2  SC=2  NP=2  NH=0  IN=2
	    (( 0 0.285714 0.285714 0.285714 0.142857 0 )	%  SS=0  SF=2  SC=2  NP=2  NH=1  IN=0
	     ( 0 0.25 0.25 0.25 0.125 0.125 )	%  SS=0  SF=2  SC=2  NP=2  NH=1  IN=1
	     ( 0 0.222222 0.222222 0.222222 0.111111 0.222222 ))	%  SS=0  SF=2  SC=2  NP=2  NH=1  IN=2
	    (( 0 0.25 0.25 0.25 0.25 0 )	%  SS=0  SF=2  SC=2  NP=2  NH=2  IN=0
	     ( 0 0.222222 0.222222 0.222222 0.222222 0.111111 )	%  SS=0  SF=2  SC=2  NP=2  NH=2  IN=1
	     ( 0 0.2 0.2 0.2 0.2 0.2 ))))))	%  SS=0  SF=2  SC=2  NP=2  NH=2  IN=2
	(((((( 1 0 0 0 0 0 )	%  SS=1  SF=0  SC=0  NP=0  NH=0  IN=0
	     ( 0.5 0 0 0 0 0.5 )	%  SS=1  SF=0  SC=0  NP=0  NH=0  IN=1
	     ( 0.333333 0 0 0 0 0.666667 ))	%  SS=1  SF=0  SC=0  NP=0  NH=0  IN=2
	    (( 0.5 0 0 0 0.5 0 )	%  SS=1  SF=0  SC=0  NP=0  NH=1  IN=0
	     ( 0.333333 0 0 0 0.333333 0.333333 )	%  SS=1  SF=0  SC=0  NP=0  NH=1  IN=1
	     ( 0.25 0 0 0 0.25 0.5 ))	%  SS=1  SF=0  SC=0  NP=0  NH=1  IN=2
	    (( 0.333333 0 0 0 0.666667 0 )	%  SS=1  SF=0  SC=0  NP=0  NH=2  IN=0
	     ( 0.25 0 0 0 0.5 0.25 )	%  SS=1  SF=0  SC=0  NP=0  NH=2  IN=1
	     ( 0.2 0 0 0 0.4 0.4 )))	%  SS=1  SF=0  SC=0  NP=0  NH=2  IN=2
	   ((( 0.5 0 0 0.5 0 0 )	%  SS=1  SF=0  SC=0  NP=1  NH=0  IN=0
	     ( 0.333333 0 0 0.333333 0 0.333333 )	%  SS=1  SF=0  SC=0  NP=1  NH=0  IN=1
	     ( 0.25 0 0 0.25 0 0.5 ))	%  SS=1  SF=0  SC=0  NP=1  NH=0  IN=2
	    (( 0.333333 0 0 0.333333 0.333333 0 )	%  SS=1  SF=0  SC=0  NP=1  NH=1  IN=0
	     ( 0.25 0 0 0.25 0.25 0.25 )	%  SS=1  SF=0  SC=0  NP=1  NH=1  IN=1
	     ( 0.2 0 0 0.2 0.2 0.4 ))	%  SS=1  SF=0  SC=0  NP=1  NH=1  IN=2
	    (( 0.25 0 0 0.25 0.5 0 )	%  SS=1  SF=0  SC=0  NP=1  NH=2  IN=0
	     ( 0.2 0 0 0.2 0.4 0.2 )	%  SS=1  SF=0  SC=0  NP=1  NH=2  IN=1
	     ( 0.166667 0 0 0.166667 0.333333 0.333333 )))	%  SS=1  SF=0  SC=0  NP=1  NH=2  IN=2
	   ((( 0.333333 0 0 0.666667 0 0 )	%  SS=1  SF=0  SC=0  NP=2  NH=0  IN=0
	     ( 0.25 0 0 0.5 0 0.25 )	%  SS=1  SF=0  SC=0  NP=2  NH=0  IN=1
	     ( 0.2 0 0 0.4 0 0.4 ))	%  SS=1  SF=0  SC=0  NP=2  NH=0  IN=2
	    (( 0.25 0 0 0.5 0.25 0 )	%  SS=1  SF=0  SC=0  NP=2  NH=1  IN=0
	     ( 0.2 0 0 0.4 0.2 0.2 )	%  SS=1  SF=0  SC=0  NP=2  NH=1  IN=1
	     ( 0.166667 0 0 0.333333 0.166667 0.333333 ))	%  SS=1  SF=0  SC=0  NP=2  NH=1  IN=2
	    (( 0.2 0 0 0.4 0.4 0 )	%  SS=1  SF=0  SC=0  NP=2  NH=2  IN=0
	     ( 0.166667 0 0 0.333333 0.333333 0.166667 )	%  SS=1  SF=0  SC=0  NP=2  NH=2  IN=1
	     ( 0.142857 0 0 0.285714 0.285714 0.285714 ))))	%  SS=1  SF=0  SC=0  NP=2  NH=2  IN=2
	  (((( 0.5 0 0.5 0 0 0 )	%  SS=1  SF=0  SC=1  NP=0  NH=0  IN=0
	     ( 0.333333 0 0.333333 0 0 0.333333 )	%  SS=1  SF=0  SC=1  NP=0  NH=0  IN=1
	     ( 0.25 0 0.25 0 0 0.5 ))	%  SS=1  SF=0  SC=1  NP=0  NH=0  IN=2
	    (( 0.333333 0 0.333333 0 0.333333 0 )	%  SS=1  SF=0  SC=1  NP=0  NH=1  IN=0
	     ( 0.25 0 0.25 0 0.25 0.25 )	%  SS=1  SF=0  SC=1  NP=0  NH=1  IN=1
	     ( 0.2 0 0.2 0 0.2 0.4 ))	%  SS=1  SF=0  SC=1  NP=0  NH=1  IN=2
	    (( 0.25 0 0.25 0 0.5 0 )	%  SS=1  SF=0  SC=1  NP=0  NH=2  IN=0
	     ( 0.2 0 0.2 0 0.4 0.2 )	%  SS=1  SF=0  SC=1  NP=0  NH=2  IN=1
	     ( 0.166667 0 0.166667 0 0.333333 0.333333 )))	%  SS=1  SF=0  SC=1  NP=0  NH=2  IN=2
	   ((( 0.333333 0 0.333333 0.333333 0 0 )	%  SS=1  SF=0  SC=1  NP=1  NH=0  IN=0
	     ( 0.25 0 0.25 0.25 0 0.25 )	%  SS=1  SF=0  SC=1  NP=1  NH=0  IN=1
	     ( 0.2 0 0.2 0.2 0 0.4 ))	%  SS=1  SF=0  SC=1  NP=1  NH=0  IN=2
	    (( 0.25 0 0.25 0.25 0.25 0 )	%  SS=1  SF=0  SC=1  NP=1  NH=1  IN=0
	     ( 0.2 0 0.2 0.2 0.2 0.2 )	%  SS=1  SF=0  SC=1  NP=1  NH=1  IN=1
	     ( 0.166667 0 0.166667 0.166667 0.166667 0.333333 ))	%  SS=1  SF=0  SC=1  NP=1  NH=1  IN=2
	    (( 0.2 0 0.2 0.2 0.4 0 )	%  SS=1  SF=0  SC=1  NP=1  NH=2  IN=0
	     ( 0.166667 0 0.166667 0.166667 0.333333 0.166667 )	%  SS=1  SF=0  SC=1  NP=1  NH=2  IN=1
	     ( 0.142857 0 0.142857 0.142857 0.285714 0.285714 )))	%  SS=1  SF=0  SC=1  NP=1  NH=2  IN=2
	   ((( 0.25 0 0.25 0.5 0 0 )	%  SS=1  SF=0  SC=1  NP=2  NH=0  IN=0
	     ( 0.2 0 0.2 0.4 0 0.2 )	%  SS=1  SF=0  SC=1  NP=2  NH=0  IN=1
	     ( 0.166667 0 0.166667 0.333333 0 0.333333 ))	%  SS=1  SF=0  SC=1  NP=2  NH=0  IN=2
	    (( 0.2 0 0.2 0.4 0.2 0 )	%  SS=1  SF=0  SC=1  NP=2  NH=1  IN=0
	     ( 0.166667 0 0.166667 0.333333 0.166667 0.166667 )	%  SS=1  SF=0  SC=1  NP=2  NH=1  IN=1
	     ( 0.142857 0 0.142857 0.285714 0.142857 0.285714 ))	%  SS=1  SF=0  SC=1  NP=2  NH=1  IN=2
	    (( 0.166667 0 0.166667 0.333333 0.333333 0 )	%  SS=1  SF=0  SC=1  NP=2  NH=2  IN=0
	     ( 0.142857 0 0.142857 0.285714 0.285714 0.142857 )	%  SS=1  SF=0  SC=1  NP=2  NH=2  IN=1
	     ( 0.125 0 0.125 0.25 0.25 0.25 ))))	%  SS=1  SF=0  SC=1  NP=2  NH=2  IN=2
	  (((( 0.333333 0 0.666667 0 0 0 )	%  SS=1  SF=0  SC=2  NP=0  NH=0  IN=0
	     ( 0.25 0 0.5 0 0 0.25 )	%  SS=1  SF=0  SC=2  NP=0  NH=0  IN=1
	     ( 0.2 0 0.4 0 0 0.4 ))	%  SS=1  SF=0  SC=2  NP=0  NH=0  IN=2
	    (( 0.25 0 0.5 0 0.25 0 )	%  SS=1  SF=0  SC=2  NP=0  NH=1  IN=0
	     ( 0.2 0 0.4 0 0.2 0.2 )	%  SS=1  SF=0  SC=2  NP=0  NH=1  IN=1
	     ( 0.166667 0 0.333333 0 0.166667 0.333333 ))	%  SS=1  SF=0  SC=2  NP=0  NH=1  IN=2
	    (( 0.2 0 0.4 0 0.4 0 )	%  SS=1  SF=0  SC=2  NP=0  NH=2  IN=0
	     ( 0.166667 0 0.333333 0 0.333333 0.166667 )	%  SS=1  SF=0  SC=2  NP=0  NH=2  IN=1
	     ( 0.142857 0 0.285714 0 0.285714 0.285714 )))	%  SS=1  SF=0  SC=2  NP=0  NH=2  IN=2
	   ((( 0.25 0 0.5 0.25 0 0 )	%  SS=1  SF=0  SC=2  NP=1  NH=0  IN=0
	     ( 0.2 0 0.4 0.2 0 0.2 )	%  SS=1  SF=0  SC=2  NP=1  NH=0  IN=1
	     ( 0.166667 0 0.333333 0.166667 0 0.333333 ))	%  SS=1  SF=0  SC=2  NP=1  NH=0  IN=2
	    (( 0.2 0 0.4 0.2 0.2 0 )	%  SS=1  SF=0  SC=2  NP=1  NH=1  IN=0
	     ( 0.166667 0 0.333333 0.166667 0.166667 0.166667 )	%  SS=1  SF=0  SC=2  NP=1  NH=1  IN=1
	     ( 0.142857 0 0.285714 0.142857 0.142857 0.285714 ))	%  SS=1  SF=0  SC=2  NP=1  NH=1  IN=2
	    (( 0.166667 0 0.333333 0.166667 0.333333 0 )	%  SS=1  SF=0  SC=2  NP=1  NH=2  IN=0
	     ( 0.142857 0 0.285714 0.142857 0.285714 0.142857 )	%  SS=1  SF=0  SC=2  NP=1  NH=2  IN=1
	     ( 0.125 0 0.25 0.125 0.25 0.25 )))	%  SS=1  SF=0  SC=2  NP=1  NH=2  IN=2
	   ((( 0.2 0 0.4 0.4 0 0 )	%  SS=1  SF=0  SC=2  NP=2  NH=0  IN=0
	     ( 0.166667 0 0.333333 0.333333 0 0.166667 )	%  SS=1  SF=0  SC=2  NP=2  NH=0  IN=1
	     ( 0.142857 0 0.285714 0.285714 0 0.285714 ))	%  SS=1  SF=0  SC=2  NP=2  NH=0  IN=2
	    (( 0.166667 0 0.333333 0.333333 0.166667 0 )	%  SS=1  SF=0  SC=2  NP=2  NH=1  IN=0
	     ( 0.142857 0 0.285714 0.285714 0.142857 0.142857 )	%  SS=1  SF=0  SC=2  NP=2  NH=1  IN=1
	     ( 0.125 0 0.25 0.25 0.125 0.25 ))	%  SS=1  SF=0  SC=2  NP=2  NH=1  IN=2
	    (( 0.142857 0 0.285714 0.285714 0.285714 0 )	%  SS=1  SF=0  SC=2  NP=2  NH=2  IN=0
	     ( 0.125 0 0.25 0.25 0.25 0.125 )	%  SS=1  SF=0  SC=2  NP=2  NH=2  IN=1
	     ( 0.111111 0 0.222222 0.222222 0.222222 0.222222 )))))	%  SS=1  SF=0  SC=2  NP=2  NH=2  IN=2
	 ((((( 0.5 0.5 0 0 0 0 )	%  SS=1  SF=1  SC=0  NP=0  NH=0  IN=0
	     ( 0.333333 0.333333 0 0 0 0.333333 )	%  SS=1  SF=1  SC=0  NP=0  NH=0  IN=1
	     ( 0.25 0.25 0 0 0 0.5 ))	%  SS=1  SF=1  SC=0  NP=0  NH=0  IN=2
	    (( 0.333333 0.333333 0 0 0.333333 0 )	%  SS=1  SF=1  SC=0  NP=0  NH=1  IN=0
	     ( 0.25 0.25 0 0 0.25 0.25 )	%  SS=1  SF=1  SC=0  NP=0  NH=1  IN=1
	     ( 0.2 0.2 0 0 0.2 0.4 ))	%  SS=1  SF=1  SC=0  NP=0  NH=1  IN=2
	    (( 0.25 0.25 0 0 0.5 0 )	%  SS=1  SF=1  SC=0  NP=0  NH=2  IN=0
	     ( 0.2 0.2 0 0 0.4 0.2 )	%  SS=1  SF=1  SC=0  NP=0  NH=2  IN=1
	     ( 0.166667 0.166667 0 0 0.333333 0.333333 )))	%  SS=1  SF=1  SC=0  NP=0  NH=2  IN=2
	   ((( 0.333333 0.333333 0 0.333333 0 0 )	%  SS=1  SF=1  SC=0  NP=1  NH=0  IN=0
	     ( 0.25 0.25 0 0.25 0 0.25 )	%  SS=1  SF=1  SC=0  NP=1  NH=0  IN=1
	     ( 0.2 0.2 0 0.2 0 0.4 ))	%  SS=1  SF=1  SC=0  NP=1  NH=0  IN=2
	    (( 0.25 0.25 0 0.25 0.25 0 )	%  SS=1  SF=1  SC=0  NP=1  NH=1  IN=0
	     ( 0.2 0.2 0 0.2 0.2 0.2 )	%  SS=1  SF=1  SC=0  NP=1  NH=1  IN=1
	     ( 0.166667 0.166667 0 0.166667 0.166667 0.333333 ))	%  SS=1  SF=1  SC=0  NP=1  NH=1  IN=2
	    (( 0.2 0.2 0 0.2 0.4 0 )	%  SS=1  SF=1  SC=0  NP=1  NH=2  IN=0
	     ( 0.166667 0.166667 0 0.166667 0.333333 0.166667 )	%  SS=1  SF=1  SC=0  NP=1  NH=2  IN=1
	     ( 0.142857 0.142857 0 0.142857 0.285714 0.285714 )))	%  SS=1  SF=1  SC=0  NP=1  NH=2  IN=2
	   ((( 0.25 0.25 0 0.5 0 0 )	%  SS=1  SF=1  SC=0  NP=2  NH=0  IN=0
	     ( 0.2 0.2 0 0.4 0 0.2 )	%  SS=1  SF=1  SC=0  NP=2  NH=0  IN=1
	     ( 0.166667 0.166667 0 0.333333 0 0.333333 ))	%  SS=1  SF=1  SC=0  NP=2  NH=0  IN=2
	    (( 0.2 0.2 0 0.4 0.2 0 )	%  SS=1  SF=1  SC=0  NP=2  NH=1  IN=0
	     ( 0.166667 0.166667 0 0.333333 0.166667 0.166667 )	%  SS=1  SF=1  SC=0  NP=2  NH=1  IN=1
	     ( 0.142857 0.142857 0 0.285714 0.142857 0.285714 ))	%  SS=1  SF=1  SC=0  NP=2  NH=1  IN=2
	    (( 0.166667 0.166667 0 0.333333 0.333333 0 )	%  SS=1  SF=1  SC=0  NP=2  NH=2  IN=0
	     ( 0.142857 0.142857 0 0.285714 0.285714 0.142857 )	%  SS=1  SF=1  SC=0  NP=2  NH=2  IN=1
	     ( 0.125 0.125 0 0.25 0.25 0.25 ))))	%  SS=1  SF=1  SC=0  NP=2  NH=2  IN=2
	  (((( 0.333333 0.333333 0.333333 0 0 0 )	%  SS=1  SF=1  SC=1  NP=0  NH=0  IN=0
	     ( 0.25 0.25 0.25 0 0 0.25 )	%  SS=1  SF=1  SC=1  NP=0  NH=0  IN=1
	     ( 0.2 0.2 0.2 0 0 0.4 ))	%  SS=1  SF=1  SC=1  NP=0  NH=0  IN=2
	    (( 0.25 0.25 0.25 0 0.25 0 )	%  SS=1  SF=1  SC=1  NP=0  NH=1  IN=0
	     ( 0.2 0.2 0.2 0 0.2 0.2 )	%  SS=1  SF=1  SC=1  NP=0  NH=1  IN=1
	     ( 0.166667 0.166667 0.166667 0 0.166667 0.333333 ))	%  SS=1  SF=1  SC=1  NP=0  NH=1  IN=2
	    (( 0.2 0.2 0.2 0 0.4 0 )	%  SS=1  SF=1  SC=1  NP=0  NH=2  IN=0
	     ( 0.166667 0.166667 0.166667 0 0.333333 0.166667 )	%  SS=1  SF=1  SC=1  NP=0  NH=2  IN=1
	     ( 0.142857 0.142857 0.142857 0 0.285714 0.285714 )))	%  SS=1  SF=1  SC=1  NP=0  NH=2  IN=2
	   ((( 0.25 0.25 0.25 0.25 0 0 )	%  SS=1  SF=1  SC=1  NP=1  NH=0  IN=0
	     ( 0.2 0.2 0.2 0.2 0 0.2 )	%  SS=1  SF=1  SC=1  NP=1  NH=0  IN=1
	     ( 0.166667 0.166667 0.166667 0.166667 0 0.333333 ))	%  SS=1  SF=1  SC=1  NP=1  NH=0  IN=2
	    (( 0.2 0.2 0.2 0.2 0.2 0 )	%  SS=1  SF=1  SC=1  NP=1  NH=1  IN=0
	     ( 0.166667 0.166667 0.166667 0.166667 0.166667 0.166667 )	%  SS=1  SF=1  SC=1  NP=1  NH=1  IN=1
	     ( 0.142857 0.142857 0.142857 0.142857 0.142857 0.285714 ))	%  SS=1  SF=1  SC=1  NP=1  NH=1  IN=2
	    (( 0.166667 0.166667 0.166667 0.166667 0.333333 0 )	%  SS=1  SF=1  SC=1  NP=1  NH=2  IN=0
	     ( 0.142857 0.142857 0.142857 0.142857 0.285714 0.142857 )	%  SS=1  SF=1  SC=1  NP=1  NH=2  IN=1
	     ( 0.125 0.125 0.125 0.125 0.25 0.25 )))	%  SS=1  SF=1  SC=1  NP=1  NH=2  IN=2
	   ((( 0.2 0.2 0.2 0.4 0 0 )	%  SS=1  SF=1  SC=1  NP=2  NH=0  IN=0
	     ( 0.166667 0.166667 0.166667 0.333333 0 0.166667 )	%  SS=1  SF=1  SC=1  NP=2  NH=0  IN=1
	     ( 0.142857 0.142857 0.142857 0.285714 0 0.285714 ))	%  SS=1  SF=1  SC=1  NP=2  NH=0  IN=2
	    (( 0.166667 0.166667 0.166667 0.333333 0.166667 0 )	%  SS=1  SF=1  SC=1  NP=2  NH=1  IN=0
	     ( 0.142857 0.142857 0.142857 0.285714 0.142857 0.142857 )	%  SS=1  SF=1  SC=1  NP=2  NH=1  IN=1
	     ( 0.125 0.125 0.125 0.25 0.125 0.25 ))	%  SS=1  SF=1  SC=1  NP=2  NH=1  IN=2
	    (( 0.142857 0.142857 0.142857 0.285714 0.285714 0 )	%  SS=1  SF=1  SC=1  NP=2  NH=2  IN=0
	     ( 0.125 0.125 0.125 0.25 0.25 0.125 )	%  SS=1  SF=1  SC=1  NP=2  NH=2  IN=1
	     ( 0.111111 0.111111 0.111111 0.222222 0.222222 0.222222 ))))	%  SS=1  SF=1  SC=1  NP=2  NH=2  IN=2
	  (((( 0.25 0.25 0.5 0 0 0 )	%  SS=1  SF=1  SC=2  NP=0  NH=0  IN=0
	     ( 0.2 0.2 0.4 0 0 0.2 )	%  SS=1  SF=1  SC=2  NP=0  NH=0  IN=1
	     ( 0.166667 0.166667 0.333333 0 0 0.333333 ))	%  SS=1  SF=1  SC=2  NP=0  NH=0  IN=2
	    (( 0.2 0.2 0.4 0 0.2 0 )	%  SS=1  SF=1  SC=2  NP=0  NH=1  IN=0
	     ( 0.166667 0.166667 0.333333 0 0.166667 0.166667 )	%  SS=1  SF=1  SC=2  NP=0  NH=1  IN=1
	     ( 0.142857 0.142857 0.285714 0 0.142857 0.285714 ))	%  SS=1  SF=1  SC=2  NP=0  NH=1  IN=2
	    (( 0.166667 0.166667 0.333333 0 0.333333 0 )	%  SS=1  SF=1  SC=2  NP=0  NH=2  IN=0
	     ( 0.142857 0.142857 0.285714 0 0.285714 0.142857 )	%  SS=1  SF=1  SC=2  NP=0  NH=2  IN=1
	     ( 0.125 0.125 0.25 0 0.25 0.25 )))	%  SS=1  SF=1  SC=2  NP=0  NH=2  IN=2
	   ((( 0.2 0.2 0.4 0.2 0 0 )	%  SS=1  SF=1  SC=2  NP=1  NH=0  IN=0
	     ( 0.166667 0.166667 0.333333 0.166667 0 0.166667 )	%  SS=1  SF=1  SC=2  NP=1  NH=0  IN=1
	     ( 0.142857 0.142857 0.285714 0.142857 0 0.285714 ))	%  SS=1  SF=1  SC=2  NP=1  NH=0  IN=2
	    (( 0.166667 0.166667 0.333333 0.166667 0.166667 0 )	%  SS=1  SF=1  SC=2  NP=1  NH=1  IN=0
	     ( 0.142857 0.142857 0.285714 0.142857 0.142857 0.142857 )	%  SS=1  SF=1  SC=2  NP=1  NH=1  IN=1
	     ( 0.125 0.125 0.25 0.125 0.125 0.25 ))	%  SS=1  SF=1  SC=2  NP=1  NH=1  IN=2
	    (( 0.142857 0.142857 0.285714 0.142857 0.285714 0 )	%  SS=1  SF=1  SC=2  NP=1  NH=2  IN=0
	     ( 0.125 0.125 0.25 0.125 0.25 0.125 )	%  SS=1  SF=1  SC=2  NP=1  NH=2  IN=1
	     ( 0.111111 0.111111 0.222222 0.111111 0.222222 0.222222 )))	%  SS=1  SF=1  SC=2  NP=1  NH=2  IN=2
	   ((( 0.166667 0.166667 0.333333 0.333333 0 0 )	%  SS=1  SF=1  SC=2  NP=2  NH=0  IN=0
	     ( 0.142857 0.142857 0.285714 0.285714 0 0.142857 )	%  SS=1  SF=1  SC=2  NP=2  NH=0  IN=1
	     ( 0.125 0.125 0.25 0.25 0 0.25 ))	%  SS=1  SF=1  SC=2  NP=2  NH=0  IN=2
	    (( 0.142857 0.142857 0.285714 0.285714 0.142857 0 )	%  SS=1  SF=1  SC=2  NP=2  NH=1  IN=0
	     ( 0.125 0.125 0.25 0.25 0.125 0.125 )	%  SS=1  SF=1  SC=2  NP=2  NH=1  IN=1
	     ( 0.111111 0.111111 0.222222 0.222222 0.111111 0.222222 ))	%  SS=1  SF=1  SC=2  NP=2  NH=1  IN=2
	    (( 0.125 0.125 0.25 0.25 0.25 0 )	%  SS=1  SF=1  SC=2  NP=2  NH=2  IN=0
	     ( 0.111111 0.111111 0.222222 0.222222 0.222222 0.111111 )	%  SS=1  SF=1  SC=2  NP=2  NH=2  IN=1
	     ( 0.1 0.1 0.2 0.2 0.2 0.2 )))))	%  SS=1  SF=1  SC=2  NP=2  NH=2  IN=2
	 ((((( 0.333333 0.666667 0 0 0 0 )	%  SS=1  SF=2  SC=0  NP=0  NH=0  IN=0
	     ( 0.25 0.5 0 0 0 0.25 )	%  SS=1  SF=2  SC=0  NP=0  NH=0  IN=1
	     ( 0.2 0.4 0 0 0 0.4 ))	%  SS=1  SF=2  SC=0  NP=0  NH=0  IN=2
	    (( 0.25 0.5 0 0 0.25 0 )	%  SS=1  SF=2  SC=0  NP=0  NH=1  IN=0
	     ( 0.2 0.4 0 0 0.2 0.2 )	%  SS=1  SF=2  SC=0  NP=0  NH=1  IN=1
	     ( 0.166667 0.333333 0 0 0.166667 0.333333 ))	%  SS=1  SF=2  SC=0  NP=0  NH=1  IN=2
	    (( 0.2 0.4 0 0 0.4 0 )	%  SS=1  SF=2  SC=0  NP=0  NH=2  IN=0
	     ( 0.166667 0.333333 0 0 0.333333 0.166667 )	%  SS=1  SF=2  SC=0  NP=0  NH=2  IN=1
	     ( 0.142857 0.285714 0 0 0.285714 0.285714 )))	%  SS=1  SF=2  SC=0  NP=0  NH=2  IN=2
	   ((( 0.25 0.5 0 0.25 0 0 )	%  SS=1  SF=2  SC=0  NP=1  NH=0  IN=0
	     ( 0.2 0.4 0 0.2 0 0.2 )	%  SS=1  SF=2  SC=0  NP=1  NH=0  IN=1
	     ( 0.166667 0.333333 0 0.166667 0 0.333333 ))	%  SS=1  SF=2  SC=0  NP=1  NH=0  IN=2
	    (( 0.2 0.4 0 0.2 0.2 0 )	%  SS=1  SF=2  SC=0  NP=1  NH=1  IN=0
	     ( 0.166667 0.333333 0 0.166667 0.166667 0.166667 )	%  SS=1  SF=2  SC=0  NP=1  NH=1  IN=1
	     ( 0.142857 0.285714 0 0.142857 0.142857 0.285714 ))	%  SS=1  SF=2  SC=0  NP=1  NH=1  IN=2
	    (( 0.166667 0.333333 0 0.166667 0.333333 0 )	%  SS=1  SF=2  SC=0  NP=1  NH=2  IN=0
	     ( 0.142857 0.285714 0 0.142857 0.285714 0.142857 )	%  SS=1  SF=2  SC=0  NP=1  NH=2  IN=1
	     ( 0.125 0.25 0 0.125 0.25 0.25 )))	%  SS=1  SF=2  SC=0  NP=1  NH=2  IN=2
	   ((( 0.2 0.4 0 0.4 0 0 )	%  SS=1  SF=2  SC=0  NP=2  NH=0  IN=0
	     ( 0.166667 0.333333 0 0.333333 0 0.166667 )	%  SS=1  SF=2  SC=0  NP=2  NH=0  IN=1
	     ( 0.142857 0.285714 0 0.285714 0 0.285714 ))	%  SS=1  SF=2  SC=0  NP=2  NH=0  IN=2
	    (( 0.166667 0.333333 0 0.333333 0.166667 0 )	%  SS=1  SF=2  SC=0  NP=2  NH=1  IN=0
	     ( 0.142857 0.285714 0 0.285714 0.142857 0.142857 )	%  SS=1  SF=2  SC=0  NP=2  NH=1  IN=1
	     ( 0.125 0.25 0 0.25 0.125 0.25 ))	%  SS=1  SF=2  SC=0  NP=2  NH=1  IN=2
	    (( 0.142857 0.285714 0 0.285714 0.285714 0 )	%  SS=1  SF=2  SC=0  NP=2  NH=2  IN=0
	     ( 0.125 0.25 0 0.25 0.25 0.125 )	%  SS=1  SF=2  SC=0  NP=2  NH=2  IN=1
	     ( 0.111111 0.222222 0 0.222222 0.222222 0.222222 ))))	%  SS=1  SF=2  SC=0  NP=2  NH=2  IN=2
	  (((( 0.25 0.5 0.25 0 0 0 )	%  SS=1  SF=2  SC=1  NP=0  NH=0  IN=0
	     ( 0.2 0.4 0.2 0 0 0.2 )	%  SS=1  SF=2  SC=1  NP=0  NH=0  IN=1
	     ( 0.166667 0.333333 0.166667 0 0 0.333333 ))	%  SS=1  SF=2  SC=1  NP=0  NH=0  IN=2
	    (( 0.2 0.4 0.2 0 0.2 0 )	%  SS=1  SF=2  SC=1  NP=0  NH=1  IN=0
	     ( 0.166667 0.333333 0.166667 0 0.166667 0.166667 )	%  SS=1  SF=2  SC=1  NP=0  NH=1  IN=1
	     ( 0.142857 0.285714 0.142857 0 0.142857 0.285714 ))	%  SS=1  SF=2  SC=1  NP=0  NH=1  IN=2
	    (( 0.166667 0.333333 0.166667 0 0.333333 0 )	%  SS=1  SF=2  SC=1  NP=0  NH=2  IN=0
	     ( 0.142857 0.285714 0.142857 0 0.285714 0.142857 )	%  SS=1  SF=2  SC=1  NP=0  NH=2  IN=1
	     ( 0.125 0.25 0.125 0 0.25 0.25 )))	%  SS=1  SF=2  SC=1  NP=0  NH=2  IN=2
	   ((( 0.2 0.4 0.2 0.2 0 0 )	%  SS=1  SF=2  SC=1  NP=1  NH=0  IN=0
	     ( 0.166667 0.333333 0.166667 0.166667 0 0.166667 )	%  SS=1  SF=2  SC=1  NP=1  NH=0  IN=1
	     ( 0.142857 0.285714 0.142857 0.142857 0 0.285714 ))	%  SS=1  SF=2  SC=1  NP=1  NH=0  IN=2
	    (( 0.166667 0.333333 0.166667 0.166667 0.166667 0 )	%  SS=1  SF=2  SC=1  NP=1  NH=1  IN=0
	     ( 0.142857 0.285714 0.142857 0.142857 0.142857 0.142857 )	%  SS=1  SF=2  SC=1  NP=1  NH=1  IN=1
	     ( 0.125 0.25 0.125 0.125 0.125 0.25 ))	%  SS=1  SF=2  SC=1  NP=1  NH=1  IN=2
	    (( 0.142857 0.285714 0.142857 0.142857 0.285714 0 )	%  SS=1  SF=2  SC=1  NP=1  NH=2  IN=0
	     ( 0.125 0.25 0.125 0.125 0.25 0.125 )	%  SS=1  SF=2  SC=1  NP=1  NH=2  IN=1
	     ( 0.111111 0.222222 0.111111 0.111111 0.222222 0.222222 )))	%  SS=1  SF=2  SC=1  NP=1  NH=2  IN=2
	   ((( 0.166667 0.333333 0.166667 0.333333 0 0 )	%  SS=1  SF=2  SC=1  NP=2  NH=0  IN=0
	     ( 0.142857 0.285714 0.142857 0.285714 0 0.142857 )	%  SS=1  SF=2  SC=1  NP=2  NH=0  IN=1
	     ( 0.125 0.25 0.125 0.25 0 0.25 ))	%  SS=1  SF=2  SC=1  NP=2  NH=0  IN=2
	    (( 0.142857 0.285714 0.142857 0.285714 0.142857 0 )	%  SS=1  SF=2  SC=1  NP=2  NH=1  IN=0
	     ( 0.125 0.25 0.125 0.25 0.125 0.125 )	%  SS=1  SF=2  SC=1  NP=2  NH=1  IN=1
	     ( 0.111111 0.222222 0.111111 0.222222 0.111111 0.222222 ))	%  SS=1  SF=2  SC=1  NP=2  NH=1  IN=2
	    (( 0.125 0.25 0.125 0.25 0.25 0 )	%  SS=1  SF=2  SC=1  NP=2  NH=2  IN=0
	     ( 0.111111 0.222222 0.111111 0.222222 0.222222 0.111111 )	%  SS=1  SF=2  SC=1  NP=2  NH=2  IN=1
	     ( 0.1 0.2 0.1 0.2 0.2 0.2 ))))	%  SS=1  SF=2  SC=1  NP=2  NH=2  IN=2
	  (((( 0.2 0.4 0.4 0 0 0 )	%  SS=1  SF=2  SC=2  NP=0  NH=0  IN=0
	     ( 0.166667 0.333333 0.333333 0 0 0.166667 )	%  SS=1  SF=2  SC=2  NP=0  NH=0  IN=1
	     ( 0.142857 0.285714 0.285714 0 0 0.285714 ))	%  SS=1  SF=2  SC=2  NP=0  NH=0  IN=2
	    (( 0.166667 0.333333 0.333333 0 0.166667 0 )	%  SS=1  SF=2  SC=2  NP=0  NH=1  IN=0
	     ( 0.142857 0.285714 0.285714 0 0.142857 0.142857 )	%  SS=1  SF=2  SC=2  NP=0  NH=1  IN=1
	     ( 0.125 0.25 0.25 0 0.125 0.25 ))	%  SS=1  SF=2  SC=2  NP=0  NH=1  IN=2
	    (( 0.142857 0.285714 0.285714 0 0.285714 0 )	%  SS=1  SF=2  SC=2  NP=0  NH=2  IN=0
	     ( 0.125 0.25 0.25 0 0.25 0.125 )	%  SS=1  SF=2  SC=2  NP=0  NH=2  IN=1
	     ( 0.111111 0.222222 0.222222 0 0.222222 0.222222 )))	%  SS=1  SF=2  SC=2  NP=0  NH=2  IN=2
	   ((( 0.166667 0.333333 0.333333 0.166667 0 0 )	%  SS=1  SF=2  SC=2  NP=1  NH=0  IN=0
	     ( 0.142857 0.285714 0.285714 0.142857 0 0.142857 )	%  SS=1  SF=2  SC=2  NP=1  NH=0  IN=1
	     ( 0.125 0.25 0.25 0.125 0 0.25 ))	%  SS=1  SF=2  SC=2  NP=1  NH=0  IN=2
	    (( 0.142857 0.285714 0.285714 0.142857 0.142857 0 )	%  SS=1  SF=2  SC=2  NP=1  NH=1  IN=0
	     ( 0.125 0.25 0.25 0.125 0.125 0.125 )	%  SS=1  SF=2  SC=2  NP=1  NH=1  IN=1
	     ( 0.111111 0.222222 0.222222 0.111111 0.111111 0.222222 ))	%  SS=1  SF=2  SC=2  NP=1  NH=1  IN=2
	    (( 0.125 0.25 0.25 0.125 0.25 0 )	%  SS=1  SF=2  SC=2  NP=1  NH=2  IN=0
	     ( 0.111111 0.222222 0.222222 0.111111 0.222222 0.111111 )	%  SS=1  SF=2  SC=2  NP=1  NH=2  IN=1
	     ( 0.1 0.2 0.2 0.1 0.2 0.2 )))	%  SS=1  SF=2  SC=2  NP=1  NH=2  IN=2
	   ((( 0.142857 0.285714 0.285714 0.285714 0 0 )	%  SS=1  SF=2  SC=2  NP=2  NH=0  IN=0
	     ( 0.125 0.25 0.25 0.25 0 0.125 )	%  SS=1  SF=2  SC=2  NP=2  NH=0  IN=1
	     ( 0.111111 0.222222 0.222222 0.222222 0 0.222222 ))	%  SS=1  SF=2  SC=2  NP=2  NH=0  IN=2
	    (( 0.125 0.25 0.25 0.25 0.125 0 )	%  SS=1  SF=2  SC=2  NP=2  NH=1  IN=0
	     ( 0.111111 0.222222 0.222222 0.222222 0.111111 0.111111 )	%  SS=1  SF=2  SC=2  NP=2  NH=1  IN=1
	     ( 0.1 0.2 0.2 0.2 0.1 0.2 ))	%  SS=1  SF=2  SC=2  NP=2  NH=1  IN=2
	    (( 0.111111 0.222222 0.222222 0.222222 0.222222 0 )	%  SS=1  SF=2  SC=2  NP=2  NH=2  IN=0
	     ( 0.1 0.2 0.2 0.2 0.2 0.1 )	%  SS=1  SF=2  SC=2  NP=2  NH=2  IN=1
	     ( 0.0909091 0.181818 0.181818 0.181818 0.181818 0.181818 ))))))	%  SS=1  SF=2  SC=2  NP=2  NH=2  IN=2
	(((((( 1 0 0 0 0 0 )	%  SS=2  SF=0  SC=0  NP=0  NH=0  IN=0
	     ( 0.666667 0 0 0 0 0.333333 )	%  SS=2  SF=0  SC=0  NP=0  NH=0  IN=1
	     ( 0.5 0 0 0 0 0.5 ))	%  SS=2  SF=0  SC=0  NP=0  NH=0  IN=2
	    (( 0.666667 0 0 0 0.333333 0 )	%  SS=2  SF=0  SC=0  NP=0  NH=1  IN=0
	     ( 0.5 0 0 0 0.25 0.25 )	%  SS=2  SF=0  SC=0  NP=0  NH=1  IN=1
	     ( 0.4 0 0 0 0.2 0.4 ))	%  SS=2  SF=0  SC=0  NP=0  NH=1  IN=2
	    (( 0.5 0 0 0 0.5 0 )	%  SS=2  SF=0  SC=0  NP=0  NH=2  IN=0
	     ( 0.4 0 0 0 0.4 0.2 )	%  SS=2  SF=0  SC=0  NP=0  NH=2  IN=1
	     ( 0.333333 0 0 0 0.333333 0.333333 )))	%  SS=2  SF=0  SC=0  NP=0  NH=2  IN=2
	   ((( 0.666667 0 0 0.333333 0 0 )	%  SS=2  SF=0  SC=0  NP=1  NH=0  IN=0
	     ( 0.5 0 0 0.25 0 0.25 )	%  SS=2  SF=0  SC=0  NP=1  NH=0  IN=1
	     ( 0.4 0 0 0.2 0 0.4 ))	%  SS=2  SF=0  SC=0  NP=1  NH=0  IN=2
	    (( 0.5 0 0 0.25 0.25 0 )	%  SS=2  SF=0  SC=0  NP=1  NH=1  IN=0
	     ( 0.4 0 0 0.2 0.2 0.2 )	%  SS=2  SF=0  SC=0  NP=1  NH=1  IN=1
	     ( 0.333333 0 0 0.166667 0.166667 0.333333 ))	%  SS=2  SF=0  SC=0  NP=1  NH=1  IN=2
	    (( 0.4 0 0 0.2 0.4 0 )	%  SS=2  SF=0  SC=0  NP=1  NH=2  IN=0
	     ( 0.333333 0 0 0.166667 0.333333 0.166667 )	%  SS=2  SF=0  SC=0  NP=1  NH=2  IN=1
	     ( 0.285714 0 0 0.142857 0.285714 0.285714 )))	%  SS=2  SF=0  SC=0  NP=1  NH=2  IN=2
	   ((( 0.5 0 0 0.5 0 0 )	%  SS=2  SF=0  SC=0  NP=2  NH=0  IN=0
	     ( 0.4 0 0 0.4 0 0.2 )	%  SS=2  SF=0  SC=0  NP=2  NH=0  IN=1
	     ( 0.333333 0 0 0.333333 0 0.333333 ))	%  SS=2  SF=0  SC=0  NP=2  NH=0  IN=2
	    (( 0.4 0 0 0.4 0.2 0 )	%  SS=2  SF=0  SC=0  NP=2  NH=1  IN=0
	     ( 0.333333 0 0 0.333333 0.166667 0.166667 )	%  SS=2  SF=0  SC=0  NP=2  NH=1  IN=1
	     ( 0.285714 0 0 0.285714 0.142857 0.285714 ))	%  SS=2  SF=0  SC=0  NP=2  NH=1  IN=2
	    (( 0.333333 0 0 0.333333 0.333333 0 )	%  SS=2  SF=0  SC=0  NP=2  NH=2  IN=0
	     ( 0.285714 0 0 0.285714 0.285714 0.142857 )	%  SS=2  SF=0  SC=0  NP=2  NH=2  IN=1
	     ( 0.25 0 0 0.25 0.25 0.25 ))))	%  SS=2  SF=0  SC=0  NP=2  NH=2  IN=2
	  (((( 0.666667 0 0.333333 0 0 0 )	%  SS=2  SF=0  SC=1  NP=0  NH=0  IN=0
	     ( 0.5 0 0.25 0 0 0.25 )	%  SS=2  SF=0  SC=1  NP=0  NH=0  IN=1
	     ( 0.4 0 0.2 0 0 0.4 ))	%  SS=2  SF=0  SC=1  NP=0  NH=0  IN=2
	    (( 0.5 0 0.25 0 0.25 0 )	%  SS=2  SF=0  SC=1  NP=0  NH=1  IN=0
	     ( 0.4 0 0.2 0 0.2 0.2 )	%  SS=2  SF=0  SC=1  NP=0  NH=1  IN=1
	     ( 0.333333 0 0.166667 0 0.166667 0.333333 ))	%  SS=2  SF=0  SC=1  NP=0  NH=1  IN=2
	    (( 0.4 0 0.2 0 0.4 0 )	%  SS=2  SF=0  SC=1  NP=0  NH=2  IN=0
	     ( 0.333333 0 0.166667 0 0.333333 0.166667 )	%  SS=2  SF=0  SC=1  NP=0  NH=2  IN=1
	     ( 0.285714 0 0.142857 0 0.285714 0.285714 )))	%  SS=2  SF=0  SC=1  NP=0  NH=2  IN=2
	   ((( 0.5 0 0.25 0.25 0 0 )	%  SS=2  SF=0  SC=1  NP=1  NH=0  IN=0
	     ( 0.4 0 0.2 0.2 0 0.2 )	%  SS=2  SF=0  SC=1  NP=1  NH=0  IN=1
	     ( 0.333333 0 0.166667 0.166667 0 0.333333 ))	%  SS=2  SF=0  SC=1  NP=1  NH=0  IN=2
	    (( 0.4 0 0.2 0.2 0.2 0 )	%  SS=2  SF=0  SC=1  NP=1  NH=1  IN=0
	     ( 0.333333 0 0.166667 0.166667 0.166667 0.166667 )	%  SS=2  SF=0  SC=1  NP=1  NH=1  IN=1
	     ( 0.285714 0 0.142857 0.142857 0.142857 0.285714 ))	%  SS=2  SF=0  SC=1  NP=1  NH=1  IN=2
	    (( 0.333333 0 0.166667 0.166667 0.333333 0 )	%  SS=2  SF=0  SC=1  NP=1  NH=2  IN=0
	     ( 0.285714 0 0.142857 0.142857 0.285714 0.142857 )	%  SS=2  SF=0  SC=1  NP=1  NH=2  IN=1
	     ( 0.25 0 0.125 0.125 0.25 0.25 )))	%  SS=2  SF=0  SC=1  NP=1  NH=2  IN=2
	   ((( 0.4 0 0.2 0.4 0 0 )	%  SS=2  SF=0  SC=1  NP=2  NH=0  IN=0
	     ( 0.333333 0 0.166667 0.333333 0 0.166667 )	%  SS=2  SF=0  SC=1  NP=2  NH=0  IN=1
	     ( 0.285714 0 0.142857 0.285714 0 0.285714 ))	%  SS=2  SF=0  SC=1  NP=2  NH=0  IN=2
	    (( 0.333333 0 0.166667 0.333333 0.166667 0 )	%  SS=2  SF=0  SC=1  NP=2  NH=1  IN=0
	     ( 0.285714 0 0.142857 0.285714 0.142857 0.142857 )	%  SS=2  SF=0  SC=1  NP=2  NH=1  IN=1
	     ( 0.25 0 0.125 0.25 0.125 0.25 ))	%  SS=2  SF=0  SC=1  NP=2  NH=1  IN=2
	    (( 0.285714 0 0.142857 0.285714 0.285714 0 )	%  SS=2  SF=0  SC=1  NP=2  NH=2  IN=0
	     ( 0.25 0 0.125 0.25 0.25 0.125 )	%  SS=2  SF=0  SC=1  NP=2  NH=2  IN=1
	     ( 0.222222 0 0.111111 0.222222 0.222222 0.222222 ))))	%  SS=2  SF=0  SC=1  NP=2  NH=2  IN=2
	  (((( 0.5 0 0.5 0 0 0 )	%  SS=2  SF=0  SC=2  NP=0  NH=0  IN=0
	     ( 0.4 0 0.4 0 0 0.2 )	%  SS=2  SF=0  SC=2  NP=0  NH=0  IN=1
	     ( 0.333333 0 0.333333 0 0 0.333333 ))	%  SS=2  SF=0  SC=2  NP=0  NH=0  IN=2
	    (( 0.4 0 0.4 0 0.2 0 )	%  SS=2  SF=0  SC=2  NP=0  NH=1  IN=0
	     ( 0.333333 0 0.333333 0 0.166667 0.166667 )	%  SS=2  SF=0  SC=2  NP=0  NH=1  IN=1
	     ( 0.285714 0 0.285714 0 0.142857 0.285714 ))	%  SS=2  SF=0  SC=2  NP=0  NH=1  IN=2
	    (( 0.333333 0 0.333333 0 0.333333 0 )	%  SS=2  SF=0  SC=2  NP=0  NH=2  IN=0
	     ( 0.285714 0 0.285714 0 0.285714 0.142857 )	%  SS=2  SF=0  SC=2  NP=0  NH=2  IN=1
	     ( 0.25 0 0.25 0 0.25 0.25 )))	%  SS=2  SF=0  SC=2  NP=0  NH=2  IN=2
	   ((( 0.4 0 0.4 0.2 0 0 )	%  SS=2  SF=0  SC=2  NP=1  NH=0  IN=0
	     ( 0.333333 0 0.333333 0.166667 0 0.166667 )	%  SS=2  SF=0  SC=2  NP=1  NH=0  IN=1
	     ( 0.285714 0 0.285714 0.142857 0 0.285714 ))	%  SS=2  SF=0  SC=2  NP=1  NH=0  IN=2
	    (( 0.333333 0 0.333333 0.166667 0.166667 0 )	%  SS=2  SF=0  SC=2  NP=1  NH=1  IN=0
	     ( 0.285714 0 0.285714 0.142857 0.142857 0.142857 )	%  SS=2  SF=0  SC=2  NP=1  NH=1  IN=1
	     ( 0.25 0 0.25 0.125 0.125 0.25 ))	%  SS=2  SF=0  SC=2  NP=1  NH=1  IN=2
	    (( 0.285714 0 0.285714 0.142857 0.285714 0 )	%  SS=2  SF=0  SC=2  NP=1  NH=2  IN=0
	     ( 0.25 0 0.25 0.125 0.25 0.125 )	%  SS=2  SF=0  SC=2  NP=1  NH=2  IN=1
	     ( 0.222222 0 0.222222 0.111111 0.222222 0.222222 )))	%  SS=2  SF=0  SC=2  NP=1  NH=2  IN=2
	   ((( 0.333333 0 0.333333 0.333333 0 0 )	%  SS=2  SF=0  SC=2  NP=2  NH=0  IN=0
	     ( 0.285714 0 0.285714 0.285714 0 0.142857 )	%  SS=2  SF=0  SC=2  NP=2  NH=0  IN=1
	     ( 0.25 0 0.25 0.25 0 0.25 ))	%  SS=2  SF=0  SC=2  NP=2  NH=0  IN=2
	    (( 0.285714 0 0.285714 0.285714 0.142857 0 )	%  SS=2  SF=0  SC=2  NP=2  NH=1  IN=0
	     ( 0.25 0 0.25 0.25 0.125 0.125 )	%  SS=2  SF=0  SC=2  NP=2  NH=1  IN=1
	     ( 0.222222 0 0.222222 0.222222 0.111111 0.222222 ))	%  SS=2  SF=0  SC=2  NP=2  NH=1  IN=2
	    (( 0.25 0 0.25 0.25 0.25 0 )	%  SS=2  SF=0  SC=2  NP=2  NH=2  IN=0
	     ( 0.222222 0 0.222222 0.222222 0.222222 0.111111 )	%  SS=2  SF=0  SC=2  NP=2  NH=2  IN=1
	     ( 0.2 0 0.2 0.2 0.2 0.2 )))))	%  SS=2  SF=0  SC=2  NP=2  NH=2  IN=2
	 ((((( 0.666667 0.333333 0 0 0 0 )	%  SS=2  SF=1  SC=0  NP=0  NH=0  IN=0
	     ( 0.5 0.25 0 0 0 0.25 )	%  SS=2  SF=1  SC=0  NP=0  NH=0  IN=1
	     ( 0.4 0.2 0 0 0 0.4 ))	%  SS=2  SF=1  SC=0  NP=0  NH=0  IN=2
	    (( 0.5 0.25 0 0 0.25 0 )	%  SS=2  SF=1  SC=0  NP=0  NH=1  IN=0
	     ( 0.4 0.2 0 0 0.2 0.2 )	%  SS=2  SF=1  SC=0  NP=0  NH=1  IN=1
	     ( 0.333333 0.166667 0 0 0.166667 0.333333 ))	%  SS=2  SF=1  SC=0  NP=0  NH=1  IN=2
	    (( 0.4 0.2 0 0 0.4 0 )	%  SS=2  SF=1  SC=0  NP=0  NH=2  IN=0
	     ( 0.333333 0.166667 0 0 0.333333 0.166667 )	%  SS=2  SF=1  SC=0  NP=0  NH=2  IN=1
	     ( 0.285714 0.142857 0 0 0.285714 0.285714 )))	%  SS=2  SF=1  SC=0  NP=0  NH=2  IN=2
	   ((( 0.5 0.25 0 0.25 0 0 )	%  SS=2  SF=1  SC=0  NP=1  NH=0  IN=0
	     ( 0.4 0.2 0 0.2 0 0.2 )	%  SS=2  SF=1  SC=0  NP=1  NH=0  IN=1
	     ( 0.333333 0.166667 0 0.166667 0 0.333333 ))	%  SS=2  SF=1  SC=0  NP=1  NH=0  IN=2
	    (( 0.4 0.2 0 0.2 0.2 0 )	%  SS=2  SF=1  SC=0  NP=1  NH=1  IN=0
	     ( 0.333333 0.166667 0 0.166667 0.166667 0.166667 )	%  SS=2  SF=1  SC=0  NP=1  NH=1  IN=1
	     ( 0.285714 0.142857 0 0.142857 0.142857 0.285714 ))	%  SS=2  SF=1  SC=0  NP=1  NH=1  IN=2
	    (( 0.333333 0.166667 0 0.166667 0.333333 0 )	%  SS=2  SF=1  SC=0  NP=1  NH=2  IN=0
	     ( 0.285714 0.142857 0 0.142857 0.285714 0.142857 )	%  SS=2  SF=1  SC=0  NP=1  NH=2  IN=1
	     ( 0.25 0.125 0 0.125 0.25 0.25 )))	%  SS=2  SF=1  SC=0  NP=1  NH=2  IN=2
	   ((( 0.4 0.2 0 0.4 0 0 )	%  SS=2  SF=1  SC=0  NP=2  NH=0  IN=0
	     ( 0.333333 0.166667 0 0.333333 0 0.166667 )	%  SS=2  SF=1  SC=0  NP=2  NH=0  IN=1
	     ( 0.285714 0.142857 0 0.285714 0 0.285714 ))	%  SS=2  SF=1  SC=0  NP=2  NH=0  IN=2
	    (( 0.333333 0.166667 0 0.333333 0.166667 0 )	%  SS=2  SF=1  SC=0  NP=2  NH=1  IN=0
	     ( 0.285714 0.142857 0 0.285714 0.142857 0.142857 )	%  SS=2  SF=1  SC=0  NP=2  NH=1  IN=1
	     ( 0.25 0.125 0 0.25 0.125 0.25 ))	%  SS=2  SF=1  SC=0  NP=2  NH=1  IN=2
	    (( 0.285714 0.142857 0 0.285714 0.285714 0 )	%  SS=2  SF=1  SC=0  NP=2  NH=2  IN=0
	     ( 0.25 0.125 0 0.25 0.25 0.125 )	%  SS=2  SF=1  SC=0  NP=2  NH=2  IN=1
	     ( 0.222222 0.111111 0 0.222222 0.222222 0.222222 ))))	%  SS=2  SF=1  SC=0  NP=2  NH=2  IN=2
	  (((( 0.5 0.25 0.25 0 0 0 )	%  SS=2  SF=1  SC=1  NP=0  NH=0  IN=0
	     ( 0.4 0.2 0.2 0 0 0.2 )	%  SS=2  SF=1  SC=1  NP=0  NH=0  IN=1
	     ( 0.333333 0.166667 0.166667 0 0 0.333333 ))	%  SS=2  SF=1  SC=1  NP=0  NH=0  IN=2
	    (( 0.4 0.2 0.2 0 0.2 0 )	%  SS=2  SF=1  SC=1  NP=0  NH=1  IN=0
	     ( 0.333333 0.166667 0.166667 0 0.166667 0.166667 )	%  SS=2  SF=1  SC=1  NP=0  NH=1  IN=1
	     ( 0.285714 0.142857 0.142857 0 0.142857 0.285714 ))	%  SS=2  SF=1  SC=1  NP=0  NH=1  IN=2
	    (( 0.333333 0.166667 0.166667 0 0.333333 0 )	%  SS=2  SF=1  SC=1  NP=0  NH=2  IN=0
	     ( 0.285714 0.142857 0.142857 0 0.285714 0.142857 )	%  SS=2  SF=1  SC=1  NP=0  NH=2  IN=1
	     ( 0.25 0.125 0.125 0 0.25 0.25 )))	%  SS=2  SF=1  SC=1  NP=0  NH=2  IN=2
	   ((( 0.4 0.2 0.2 0.2 0 0 )	%  SS=2  SF=1  SC=1  NP=1  NH=0  IN=0
	     ( 0.333333 0.166667 0.166667 0.166667 0 0.166667 )	%  SS=2  SF=1  SC=1  NP=1  NH=0  IN=1
	     ( 0.285714 0.142857 0.142857 0.142857 0 0.285714 ))	%  SS=2  SF=1  SC=1  NP=1  NH=0  IN=2
	    (( 0.333333 0.166667 0.166667 0.166667 0.166667 0 )	%  SS=2  SF=1  SC=1  NP=1  NH=1  IN=0
	     ( 0.285714 0.142857 0.142857 0.142857 0.142857 0.142857 )	%  SS=2  SF=1  SC=1  NP=1  NH=1  IN=1
	     ( 0.25 0.125 0.125 0.125 0.125 0.25 ))	%  SS=2  SF=1  SC=1  NP=1  NH=1  IN=2
	    (( 0.285714 0.142857 0.142857 0.142857 0.285714 0 )	%  SS=2  SF=1  SC=1  NP=1  NH=2  IN=0
	     ( 0.25 0.125 0.125 0.125 0.25 0.125 )	%  SS=2  SF=1  SC=1  NP=1  NH=2  IN=1
	     ( 0.222222 0.111111 0.111111 0.111111 0.222222 0.222222 )))	%  SS=2  SF=1  SC=1  NP=1  NH=2  IN=2
	   ((( 0.333333 0.166667 0.166667 0.333333 0 0 )	%  SS=2  SF=1  SC=1  NP=2  NH=0  IN=0
	     ( 0.285714 0.142857 0.142857 0.285714 0 0.142857 )	%  SS=2  SF=1  SC=1  NP=2  NH=0  IN=1
	     ( 0.25 0.125 0.125 0.25 0 0.25 ))	%  SS=2  SF=1  SC=1  NP=2  NH=0  IN=2
	    (( 0.285714 0.142857 0.142857 0.285714 0.142857 0 )	%  SS=2  SF=1  SC=1  NP=2  NH=1  IN=0
	     ( 0.25 0.125 0.125 0.25 0.125 0.125 )	%  SS=2  SF=1  SC=1  NP=2  NH=1  IN=1
	     ( 0.222222 0.111111 0.111111 0.222222 0.111111 0.222222 ))	%  SS=2  SF=1  SC=1  NP=2  NH=1  IN=2
	    (( 0.25 0.125 0.125 0.25 0.25 0 )	%  SS=2  SF=1  SC=1  NP=2  NH=2  IN=0
	     ( 0.222222 0.111111 0.111111 0.222222 0.222222 0.111111 )	%  SS=2  SF=1  SC=1  NP=2  NH=2  IN=1
	     ( 0.2 0.1 0.1 0.2 0.2 0.2 ))))	%  SS=2  SF=1  SC=1  NP=2  NH=2  IN=2
	  (((( 0.4 0.2 0.4 0 0 0 )	%  SS=2  SF=1  SC=2  NP=0  NH=0  IN=0
	     ( 0.333333 0.166667 0.333333 0 0 0.166667 )	%  SS=2  SF=1  SC=2  NP=0  NH=0  IN=1
	     ( 0.285714 0.142857 0.285714 0 0 0.285714 ))	%  SS=2  SF=1  SC=2  NP=0  NH=0  IN=2
	    (( 0.333333 0.166667 0.333333 0 0.166667 0 )	%  SS=2  SF=1  SC=2  NP=0  NH=1  IN=0
	     ( 0.285714 0.142857 0.285714 0 0.142857 0.142857 )	%  SS=2  SF=1  SC=2  NP=0  NH=1  IN=1
	     ( 0.25 0.125 0.25 0 0.125 0.25 ))	%  SS=2  SF=1  SC=2  NP=0  NH=1  IN=2
	    (( 0.285714 0.142857 0.285714 0 0.285714 0 )	%  SS=2  SF=1  SC=2  NP=0  NH=2  IN=0
	     ( 0.25 0.125 0.25 0 0.25 0.125 )	%  SS=2  SF=1  SC=2  NP=0  NH=2  IN=1
	     ( 0.222222 0.111111 0.222222 0 0.222222 0.222222 )))	%  SS=2  SF=1  SC=2  NP=0  NH=2  IN=2
	   ((( 0.333333 0.166667 0.333333 0.166667 0 0 )	%  SS=2  SF=1  SC=2  NP=1  NH=0  IN=0
	     ( 0.285714 0.142857 0.285714 0.142857 0 0.142857 )	%  SS=2  SF=1  SC=2  NP=1  NH=0  IN=1
	     ( 0.25 0.125 0.25 0.125 0 0.25 ))	%  SS=2  SF=1  SC=2  NP=1  NH=0  IN=2
	    (( 0.285714 0.142857 0.285714 0.142857 0.142857 0 )	%  SS=2  SF=1  SC=2  NP=1  NH=1  IN=0
	     ( 0.25 0.125 0.25 0.125 0.125 0.125 )	%  SS=2  SF=1  SC=2  NP=1  NH=1  IN=1
	     ( 0.222222 0.111111 0.222222 0.111111 0.111111 0.222222 ))	%  SS=2  SF=1  SC=2  NP=1  NH=1  IN=2
	    (( 0.25 0.125 0.25 0.125 0.25 0 )	%  SS=2  SF=1  SC=2  NP=1  NH=2  IN=0
	     ( 0.222222 0.111111 0.222222 0.111111 0.222222 0.111111 )	%  SS=2  SF=1  SC=2  NP=1  NH=2  IN=1
	     ( 0.2 0.1 0.2 0.1 0.2 0.2 )))	%  SS=2  SF=1  SC=2  NP=1  NH=2  IN=2
	   ((( 0.285714 0.142857 0.285714 0.285714 0 0 )	%  SS=2  SF=1  SC=2  NP=2  NH=0  IN=0
	     ( 0.25 0.125 0.25 0.25 0 0.125 )	%  SS=2  SF=1  SC=2  NP=2  NH=0  IN=1
	     ( 0.222222 0.111111 0.222222 0.222222 0 0.222222 ))	%  SS=2  SF=1  SC=2  NP=2  NH=0  IN=2
	    (( 0.25 0.125 0.25 0.25 0.125 0 )	%  SS=2  SF=1  SC=2  NP=2  NH=1  IN=0
	     ( 0.222222 0.111111 0.222222 0.222222 0.111111 0.111111 )	%  SS=2  SF=1  SC=2  NP=2  NH=1  IN=1
	     ( 0.2 0.1 0.2 0.2 0.1 0.2 ))	%  SS=2  SF=1  SC=2  NP=2  NH=1  IN=2
	    (( 0.222222 0.111111 0.222222 0.222222 0.222222 0 )	%  SS=2  SF=1  SC=2  NP=2  NH=2  IN=0
	     ( 0.2 0.1 0.2 0.2 0.2 0.1 )	%  SS=2  SF=1  SC=2  NP=2  NH=2  IN=1
	     ( 0.181818 0.0909091 0.181818 0.181818 0.181818 0.181818 )))))	%  SS=2  SF=1  SC=2  NP=2  NH=2  IN=2
	 ((((( 0.5 0.5 0 0 0 0 )	%  SS=2  SF=2  SC=0  NP=0  NH=0  IN=0
	     ( 0.4 0.4 0 0 0 0.2 )	%  SS=2  SF=2  SC=0  NP=0  NH=0  IN=1
	     ( 0.333333 0.333333 0 0 0 0.333333 ))	%  SS=2  SF=2  SC=0  NP=0  NH=0  IN=2
	    (( 0.4 0.4 0 0 0.2 0 )	%  SS=2  SF=2  SC=0  NP=0  NH=1  IN=0
	     ( 0.333333 0.333333 0 0 0.166667 0.166667 )	%  SS=2  SF=2  SC=0  NP=0  NH=1  IN=1
	     ( 0.285714 0.285714 0 0 0.142857 0.285714 ))	%  SS=2  SF=2  SC=0  NP=0  NH=1  IN=2
	    (( 0.333333 0.333333 0 0 0.333333 0 )	%  SS=2  SF=2  SC=0  NP=0  NH=2  IN=0
	     ( 0.285714 0.285714 0 0 0.285714 0.142857 )	%  SS=2  SF=2  SC=0  NP=0  NH=2  IN=1
	     ( 0.25 0.25 0 0 0.25 0.25 )))	%  SS=2  SF=2  SC=0  NP=0  NH=2  IN=2
	   ((( 0.4 0.4 0 0.2 0 0 )	%  SS=2  SF=2  SC=0  NP=1  NH=0  IN=0
	     ( 0.333333 0.333333 0 0.166667 0 0.166667 )	%  SS=2  SF=2  SC=0  NP=1  NH=0  IN=1
	     ( 0.285714 0.285714 0 0.142857 0 0.285714 ))	%  SS=2  SF=2  SC=0  NP=1  NH=0  IN=2
	    (( 0.333333 0.333333 0 0.166667 0.166667 0 )	%  SS=2  SF=2  SC=0  NP=1  NH=1  IN=0
	     ( 0.285714 0.285714 0 0.142857 0.142857 0.142857 )	%  SS=2  SF=2  SC=0  NP=1  NH=1  IN=1
	     ( 0.25 0.25 0 0.125 0.125 0.25 ))	%  SS=2  SF=2  SC=0  NP=1  NH=1  IN=2
	    (( 0.285714 0.285714 0 0.142857 0.285714 0 )	%  SS=2  SF=2  SC=0  NP=1  NH=2  IN=0
	     ( 0.25 0.25 0 0.125 0.25 0.125 )	%  SS=2  SF=2  SC=0  NP=1  NH=2  IN=1
	     ( 0.222222 0.222222 0 0.111111 0.222222 0.222222 )))	%  SS=2  SF=2  SC=0  NP=1  NH=2  IN=2
	   ((( 0.333333 0.333333 0 0.333333 0 0 )	%  SS=2  SF=2  SC=0  NP=2  NH=0  IN=0
	     ( 0.285714 0.285714 0 0.285714 0 0.142857 )	%  SS=2  SF=2  SC=0  NP=2  NH=0  IN=1
	     ( 0.25 0.25 0 0.25 0 0.25 ))	%  SS=2  SF=2  SC=0  NP=2  NH=0  IN=2
	    (( 0.285714 0.285714 0 0.285714 0.142857 0 )	%  SS=2  SF=2  SC=0  NP=2  NH=1  IN=0
	     ( 0.25 0.25 0 0.25 0.125 0.125 )	%  SS=2  SF=2  SC=0  NP=2  NH=1  IN=1
	     ( 0.222222 0.222222 0 0.222222 0.111111 0.222222 ))	%  SS=2  SF=2  SC=0  NP=2  NH=1  IN=2
	    (( 0.25 0.25 0 0.25 0.25 0 )	%  SS=2  SF=2  SC=0  NP=2  NH=2  IN=0
	     ( 0.222222 0.222222 0 0.222222 0.222222 0.111111 )	%  SS=2  SF=2  SC=0  NP=2  NH=2  IN=1
	     ( 0.2 0.2 0 0.2 0.2 0.2 ))))	%  SS=2  SF=2  SC=0  NP=2  NH=2  IN=2
	  (((( 0.4 0.4 0.2 0 0 0 )	%  SS=2  SF=2  SC=1  NP=0  NH=0  IN=0
	     ( 0.333333 0.333333 0.166667 0 0 0.166667 )	%  SS=2  SF=2  SC=1  NP=0  NH=0  IN=1
	     ( 0.285714 0.285714 0.142857 0 0 0.285714 ))	%  SS=2  SF=2  SC=1  NP=0  NH=0  IN=2
	    (( 0.333333 0.333333 0.166667 0 0.166667 0 )	%  SS=2  SF=2  SC=1  NP=0  NH=1  IN=0
	     ( 0.285714 0.285714 0.142857 0 0.142857 0.142857 )	%  SS=2  SF=2  SC=1  NP=0  NH=1  IN=1
	     ( 0.25 0.25 0.125 0 0.125 0.25 ))	%  SS=2  SF=2  SC=1  NP=0  NH=1  IN=2
	    (( 0.285714 0.285714 0.142857 0 0.285714 0 )	%  SS=2  SF=2  SC=1  NP=0  NH=2  IN=0
	     ( 0.25 0.25 0.125 0 0.25 0.125 )	%  SS=2  SF=2  SC=1  NP=0  NH=2  IN=1
	     ( 0.222222 0.222222 0.111111 0 0.222222 0.222222 )))	%  SS=2  SF=2  SC=1  NP=0  NH=2  IN=2
	   ((( 0.333333 0.333333 0.166667 0.166667 0 0 )	%  SS=2  SF=2  SC=1  NP=1  NH=0  IN=0
	     ( 0.285714 0.285714 0.142857 0.142857 0 0.142857 )	%  SS=2  SF=2  SC=1  NP=1  NH=0  IN=1
	     ( 0.25 0.25 0.125 0.125 0 0.25 ))	%  SS=2  SF=2  SC=1  NP=1  NH=0  IN=2
	    (( 0.285714 0.285714 0.142857 0.142857 0.142857 0 )	%  SS=2  SF=2  SC=1  NP=1  NH=1  IN=0
	     ( 0.25 0.25 0.125 0.125 0.125 0.125 )	%  SS=2  SF=2  SC=1  NP=1  NH=1  IN=1
	     ( 0.222222 0.222222 0.111111 0.111111 0.111111 0.222222 ))	%  SS=2  SF=2  SC=1  NP=1  NH=1  IN=2
	    (( 0.25 0.25 0.125 0.125 0.25 0 )	%  SS=2  SF=2  SC=1  NP=1  NH=2  IN=0
	     ( 0.222222 0.222222 0.111111 0.111111 0.222222 0.111111 )	%  SS=2  SF=2  SC=1  NP=1  NH=2  IN=1
	     ( 0.2 0.2 0.1 0.1 0.2 0.2 )))	%  SS=2  SF=2  SC=1  NP=1  NH=2  IN=2
	   ((( 0.285714 0.285714 0.142857 0.285714 0 0 )	%  SS=2  SF=2  SC=1  NP=2  NH=0  IN=0
	     ( 0.25 0.25 0.125 0.25 0 0.125 )	%  SS=2  SF=2  SC=1  NP=2  NH=0  IN=1
	     ( 0.222222 0.222222 0.111111 0.222222 0 0.222222 ))	%  SS=2  SF=2  SC=1  NP=2  NH=0  IN=2
	    (( 0.25 0.25 0.125 0.25 0.125 0 )	%  SS=2  SF=2  SC=1  NP=2  NH=1  IN=0
	     ( 0.222222 0.222222 0.111111 0.222222 0.111111 0.111111 )	%  SS=2  SF=2  SC=1  NP=2  NH=1  IN=1
	     ( 0.2 0.2 0.1 0.2 0.1 0.2 ))	%  SS=2  SF=2  SC=1  NP=2  NH=1  IN=2
	    (( 0.222222 0.222222 0.111111 0.222222 0.222222 0 )	%  SS=2  SF=2  SC=1  NP=2  NH=2  IN=0
	     ( 0.2 0.2 0.1 0.2 0.2 0.1 )	%  SS=2  SF=2  SC=1  NP=2  NH=2  IN=1
	     ( 0.181818 0.181818 0.0909091 0.181818 0.181818 0.181818 ))))	%  SS=2  SF=2  SC=1  NP=2  NH=2  IN=2
	  (((( 0.333333 0.333333 0.333333 0 0 0 )	%  SS=2  SF=2  SC=2  NP=0  NH=0  IN=0
	     ( 0.285714 0.285714 0.285714 0 0 0.142857 )	%  SS=2  SF=2  SC=2  NP=0  NH=0  IN=1
	     ( 0.25 0.25 0.25 0 0 0.25 ))	%  SS=2  SF=2  SC=2  NP=0  NH=0  IN=2
	    (( 0.285714 0.285714 0.285714 0 0.142857 0 )	%  SS=2  SF=2  SC=2  NP=0  NH=1  IN=0
	     ( 0.25 0.25 0.25 0 0.125 0.125 )	%  SS=2  SF=2  SC=2  NP=0  NH=1  IN=1
	     ( 0.222222 0.222222 0.222222 0 0.111111 0.222222 ))	%  SS=2  SF=2  SC=2  NP=0  NH=1  IN=2
	    (( 0.25 0.25 0.25 0 0.25 0 )	%  SS=2  SF=2  SC=2  NP=0  NH=2  IN=0
	     ( 0.222222 0.222222 0.222222 0 0.222222 0.111111 )	%  SS=2  SF=2  SC=2  NP=0  NH=2  IN=1
	     ( 0.2 0.2 0.2 0 0.2 0.2 )))	%  SS=2  SF=2  SC=2  NP=0  NH=2  IN=2
	   ((( 0.285714 0.285714 0.285714 0.142857 0 0 )	%  SS=2  SF=2  SC=2  NP=1  NH=0  IN=0
	     ( 0.25 0.25 0.25 0.125 0 0.125 )	%  SS=2  SF=2  SC=2  NP=1  NH=0  IN=1
	     ( 0.222222 0.222222 0.222222 0.111111 0 0.222222 ))	%  SS=2  SF=2  SC=2  NP=1  NH=0  IN=2
	    (( 0.25 0.25 0.25 0.125 0.125 0 )	%  SS=2  SF=2  SC=2  NP=1  NH=1  IN=0
	     ( 0.222222 0.222222 0.222222 0.111111 0.111111 0.111111 )	%  SS=2  SF=2  SC=2  NP=1  NH=1  IN=1
	     ( 0.2 0.2 0.2 0.1 0.1 0.2 ))	%  SS=2  SF=2  SC=2  NP=1  NH=1  IN=2
	    (( 0.222222 0.222222 0.222222 0.111111 0.222222 0 )	%  SS=2  SF=2  SC=2  NP=1  NH=2  IN=0
	     ( 0.2 0.2 0.2 0.1 0.2 0.1 )	%  SS=2  SF=2  SC=2  NP=1  NH=2  IN=1
	     ( 0.181818 0.181818 0.181818 0.0909091 0.181818 0.181818 )))	%  SS=2  SF=2  SC=2  NP=1  NH=2  IN=2
	   ((( 0.25 0.25 0.25 0.25 0 0 )	%  SS=2  SF=2  SC=2  NP=2  NH=0  IN=0
	     ( 0.222222 0.222222 0.222222 0.222222 0 0.111111 )	%  SS=2  SF=2  SC=2  NP=2  NH=0  IN=1
	     ( 0.2 0.2 0.2 0.2 0 0.2 ))	%  SS=2  SF=2  SC=2  NP=2  NH=0  IN=2
	    (( 0.222222 0.222222 0.222222 0.222222 0.111111 0 )	%  SS=2  SF=2  SC=2  NP=2  NH=1  IN=0
	     ( 0.2 0.2 0.2 0.2 0.1 0.1 )	%  SS=2  SF=2  SC=2  NP=2  NH=1  IN=1
	     ( 0.181818 0.181818 0.181818 0.181818 0.0909091 0.181818 ))	%  SS=2  SF=2  SC=2  NP=2  NH=1  IN=2
	    (( 0.2 0.2 0.2 0.2 0.2 0 )	%  SS=2  SF=2  SC=2  NP=2  NH=2  IN=0
	     ( 0.181818 0.181818 0.181818 0.181818 0.181818 0.0909091 )	%  SS=2  SF=2  SC=2  NP=2  NH=2  IN=1
	     ( 0.166667 0.166667 0.166667 0.166667 0.166667 0.166667 )))))));	%  SS=2  SF=2  SC=2  NP=2  NH=2  IN=2
}

potential (SS)
{
    data = ( 0.333333 0.333333 0.333333 );
}

potential (SF)
{
    data = ( 0.333333 0.333333 0.333333 );
}

potential (SC)
{
    data = ( 0.333333 0.333333 0.333333 );
}

potential (NP)
{
    data = ( 0.333333 0.333333 0.333333 );
}

potential (NH)
{
    data = ( 0.333333 0.333333 0.333333 );
}

potential (IN)
{
    data = ( 0.333333 0.333333 0.333333 );
}
