net
{
    node_size = (80 40);
    HR_Desc = "";
    HR_OOBN_FitExpand = "1";
    HR_Zoom_ZoomFactor = "100";
    HR_Groups_GroupColors = "";
    HR_Groups_GroupNames = "";
    HR_Groups_UserGroupsNo = "0";
    HR_Color_Interface = "21";
    HR_Color_Instance = "0";
    HR_Color_Utility = "36";
    HR_Color_Decision = "17";
    HR_Color_ContinuousChance = "48";
    HR_Color_DiscreteChance = "16";
    HR_Monitor_InitSD = "2";
    HR_Monitor_InitStates = "5";
    HR_Monitor_OpenGraph = "0";
    HR_Monitor_GraphPrecision = "100";
    HR_Monitor_AutoUpdGraph = "0";
    HR_Compile_MaxMinimalSeparators = "100000";
    HR_Compile_ApproxEpsilon = "1.0E-5";
    HR_Compile_Approximate = "0";
    HR_Compile_Compress = "0";
    HR_Compile_TriangMethod = "0";
    HR_Propagate_AutoNormal = "1";
    HR_Propagate_AutoSum = "1";
    HR_Propagate_Auto = "1";
    HR_Font_Italic = "0";
    HR_Font_Weight = "400";
    HR_Font_Size = "-12";
    HR_Font_Name = "Arial";
    HR_Grid_GridShow = "0";
    HR_Grid_GridSnap = "0";
    HR_Grid_Y = "40";
    HR_Grid_X = "40";
}

node D
{
    label = "";
    position = (545 201);
    states = ("false" "true");
    subtype = boolean;
    HR_LinkMode_B = "0";
    HR_Group = "0";
    HR_Desc = "";
    HR_State_1 = "";
    HR_State_0 = "";
}

node B
{
    label = "";
    position = (437 75);
    states = ("false" "true");
    subtype = boolean;
    HR_Group = "0";
    HR_Desc = "";
    HR_State_1 = "";
    HR_State_0 = "";
}

node C
{
    label = "";
    position = (330 195);
    states = ("false" "true");
    subtype = boolean;
    HR_LinkMode_B = "0";
    HR_LinkMode_A = "0";
    HR_Group = "0";
    HR_Desc = "";
    HR_State_1 = "";
    HR_State_0 = "";
}

node A
{
    label = "";
    position = (220 74);
    states = ("false" "true");
    subtype = boolean;
    HR_Group = "0";
    HR_Desc = "";
    HR_State_1 = "";
    HR_State_0 = "";
}

potential (D)
{
    data = ( 0.407395 0.592605 );
}

potential (B | D C)
{
    data
     = ((( 0.190044 0.809956 )	%  D=false  C=false
	 ( 0.362429 0.637571 ))	%  D=false  C=true
	(( 0.257266 0.742734 )	%  D=true  C=false
	 ( 0.362429 0.637571 )));	%  D=true  C=true
}

potential (C)
{
    data = ( 0.189793 0.810207 );
}

potential (A | C)
{
    data
     = (( 0.304273 0.695727 )	%  C=false
	( 0.362476 0.637524 ));	%  C=true
}
